{"learner":{"attributes":{"scikit_learn":"{\"_estimator_type\": \"regressor\"}"},"feature_names":["danceability","energy","loudness","speechiness","acousticness","instrumentalness","liveness","valence","tempo","duration_ms","key","mode","artist_avg_popularity","artist_song_count"],"feature_types":["float","float","float","float","float","float","float","float","float","int","int","int","float","int"],"gradient_booster":{"model":{"cats":{"enc":[],"feature_segments":[],"sorted_idx":[]},"gbtree_model_param":{"num_parallel_tree":"1","num_trees":"500"},"iteration_indptr":[0,1,2,3,4,5,6,7,8,9,10,11,12,13,14,15,16,17,18,19,20,21,22,23,24,25,26,27,28,29,30,31,32,33,34,35,36,37,38,39,40,41,42,43,44,45,46,47,48,49,50,51,52,53,54,55,56,57,58,59,60,61,62,63,64,65,66,67,68,69,70,71,72,73,74,75,76,77,78,79,80,81,82,83,84,85,86,87,88,89,90,91,92,93,94,95,96,97,98,99,100,101,102,103,104,105,106,107,108,109,110,111,112,113,114,115,116,117,118,119,120,121,122,123,124,125,126,127,128,129,130,131,132,133,134,135,136,137,138,139,140,141,142,143,144,145,146,147,148,149,150,151,152,153,154,155,156,157,158,159,160,161,162,163,164,165,166,167,168,169,170,171,172,173,174,175,176,177,178,179,180,181,182,183,184,185,186,187,188,189,190,191,192,193,194,195,196,197,198,199,200,201,202,203,204,205,206,207,208,209,210,211,212,213,214,215,216,217,218,219,220,221,222,223,224,225,226,227,228,229,230,231,232,233,234,235,236,237,238,239,240,241,242,243,244,245,246,247,248,249,250,251,252,253,254,255,256,257,258,259,260,261,262,263,264,265,266,267,268,269,270,271,272,273,274,275,276,277,278,279,280,281,282,283,284,285,286,287,288,289,290,291,292,293,294,295,296,297,298,299,300,301,302,303,304,305,306,307,308,309,310,311,312,313,314,315,316,317,318,319,320,321,322,323,324,325,326,327,328,329,330,331,332,333,334,335,336,337,338,339,340,341,342,343,344,345,346,347,348,349,350,351,352,353,354,355,356,357,358,359,360,361,362,363,364,365,366,367,368,369,370,371,372,373,374,375,376,377,378,379,380,381,382,383,384,385,386,387,388,389,390,391,392,393,394,395,396,397,398,399,400,401,402,403,404,405,406,407,408,409,410,411,412,413,414,415,416,417,418,419,420,421,422,423,424,425,426,427,428,429,430,431,432,433,434,435,436,437,438,439,440,441,442,443,444,445,446,447,448,449,450,451,452,453,454,455,456,457,458,459,460,461,462,463,464,465,466,467,468,469,470,471,472,473,474,475,476,477,478,479,480,481,482,483,484,485,486,487,488,489,490,491,492,493,494,495,496,497,498,499,500],"tree_info":[0,0,0,0,0,0,0,0,0,0,0,0,0,0,0,0,0,0,0,0,0,0,0,0,0,0,0,0,0,0,0,0,0,0,0,0,0,0,0,0,0,0,0,0,0,0,0,0,0,0,0,0,0,0,0,0,0,0,0,0,0,0,0,0,0,0,0,0,0,0,0,0,0,0,0,0,0,0,0,0,0,0,0,0,0,0,0,0,0,0,0,0,0,0,0,0,0,0,0,0,0,0,0,0,0,0,0,0,0,0,0,0,0,0,0,0,0,0,0,0,0,0,0,0,0,0,0,0,0,0,0,0,0,0,0,0,0,0,0,0,0,0,0,0,0,0,0,0,0,0,0,0,0,0,0,0,0,0,0,0,0,0,0,0,0,0,0,0,0,0,0,0,0,0,0,0,0,0,0,0,0,0,0,0,0,0,0,0,0,0,0,0,0,0,0,0,0,0,0,0,0,0,0,0,0,0,0,0,0,0,0,0,0,0,0,0,0,0,0,0,0,0,0,0,0,0,0,0,0,0,0,0,0,0,0,0,0,0,0,0,0,0,0,0,0,0,0,0,0,0,0,0,0,0,0,0,0,0,0,0,0,0,0,0,0,0,0,0,0,0,0,0,0,0,0,0,0,0,0,0,0,0,0,0,0,0,0,0,0,0,0,0,0,0,0,0,0,0,0,0,0,0,0,0,0,0,0,0,0,0,0,0,0,0,0,0,0,0,0,0,0,0,0,0,0,0,0,0,0,0,0,0,0,0,0,0,0,0,0,0,0,0,0,0,0,0,0,0,0,0,0,0,0,0,0,0,0,0,0,0,0,0,0,0,0,0,0,0,0,0,0,0,0,0,0,0,0,0,0,0,0,0,0,0,0,0,0,0,0,0,0,0,0,0,0,0,0,0,0,0,0,0,0,0,0,0,0,0,0,0,0,0,0,0,0,0,0,0,0,0,0,0,0,0,0,0,0,0,0,0,0,0,0,0,0,0,0,0,0,0,0,0,0,0,0,0,0,0,0,0,0,0,0,0,0,0,0,0,0,0,0,0,0,0,0,0,0,0,0,0,0,0,0,0,0,0,0,0,0,0,0,0,0,0,0,0,0,0,0,0,0,0,0,0,0,0,0,0,0,0],"trees":[{"base_weights":[7.4784514E-3,-8.23655E0,1.4366927E1,-1.4213511E1,-2.9512897E0,9.423408E0,2.6203945E1,-1.6694016E1,-1.1179489E1,-5.6460953E0,1.4098391E-1,6.383314E0,1.3409328E1,2.2524006E1,3.53402E1,-1.773279E1,-1.5131321E1,-1.2570914E1,-9.86543E0,-7.1184306E0,-4.233414E0,-1.2230258E0,1.7274755E0,4.7535877E0,8.010317E0,1.1497529E1,1.5465348E1,2.031856E1,2.5862762E1,3.2878056E1,4.275835E1,-1.8121904E1,-1.6997744E1,-1.57807455E1,-1.4547247E1,-1.326E1,-1.196076E1,-1.0486183E1,-9.23955E0,-7.9375415E0,-6.488985E0,-5.0646787E0,-3.5331047E0,-1.9466338E0,-4.9695605E-1,2.1100726E0,3.4106776E-1,3.9362245E0,5.4901175E0,7.2527876E0,9.040345E0,1.0610553E1,1.2273704E1,1.4338112E1,1.6590284E1,1.9181429E1,2.1907099E1,2.4417538E1,2.7310162E1,3.1339867E1,3.5973526E1,3.9857285E1,4.5620937E1,-9.1474926E-1,-8.907118E-1,-8.650536E-1,-8.3785117E-1,-8.076877E-1,-7.7006286E-1,-7.448582E-1,-7.132592E-1,-6.5357417E-1,-7.075606E-1,-5.853472E-1,-6.313177E-1,-5.3855175E-1,-4.9487048E-1,-4.4893622E-1,-4.8726866E-1,-3.8650507E-1,-4.420695E-1,-3.088291E-1,-3.8486814E-1,-2.372825E-1,-3.0999693E-1,-1.6510482E-1,-2.454747E-1,-7.743693E-2,-1.549091E-1,-4.928566E-3,-8.155992E-2,6.967838E-2,1.438838E-1,-4.0931053E-2,5.1351972E-2,2.1483217E-1,1.4293538E-1,2.9676434E-1,2.3250175E-1,3.8250667E-1,2.6926664E-1,4.6882868E-1,3.8326347E-1,5.4333985E-1,4.4483286E-1,6.259605E-1,5.320954E-1,7.2696704E-1,6.0301495E-1,8.431403E-1,7.545556E-1,9.212406E-1,9.87198E-1,1.1059437E0,8.780055E-1,1.2349153E0,1.1267169E0,1.3253169E0,1.4068907E0,1.5036758E0,1.6311133E0,1.7478371E0,1.8484687E0,1.9933258E0,8.3749527E-1,2.2859926E0,1.8304617E0],"categories":[],"categories_nodes":[],"categories_segments":[],"categories_sizes":[],"default_left":[0,0,0,0,0,0,0,0,0,0,0,0,0,0,0,0,0,0,0,0,0,0,0,0,0,0,0,0,0,0,0,0,0,0,0,0,0,0,0,0,0,0,0,0,0,0,0,0,0,0,0,0,0,0,0,0,0,0,0,0,0,0,0,0,0,0,0,0,0,0,0,0,0,0,0,0,0,0,0,0,0,0,0,0,0,0,0,0,0,0,0,0,0,0,0,0,0,0,0,0,0,0,0,0,0,0,0,0,0,0,0,0,0,0,0,0,0,0,0,0,0,0,0,0,0,0,0],"id":0,"left_children":[1,3,5,7,9,11,13,15,17,19,21,23,25,27,29,31,33,35,37,39,41,43,45,47,49,51,53,55,57,59,61,63,65,67,69,71,73,75,77,79,81,83,85,87,89,91,93,95,97,99,101,103,105,107,109,111,113,115,117,119,121,123,125,-1,-1,-1,-1,-1,-1,-1,-1,-1,-1,-1,-1,-1,-1,-1,-1,-1,-1,-1,-1,-1,-1,-1,-1,-1,-1,-1,-1,-1,-1,-1,-1,-1,-1,-1,-1,-1,-1,-1,-1,-1,-1,-1,-1,-1,-1,-1,-1,-1,-1,-1,-1,-1,-1,-1,-1,-1,-1,-1,-1,-1,-1,-1,-1],"loss_changes":[9.883522E7,1.6754932E7,1.7818512E7,1.873072E6,2.3456365E6,2.602794E6,3.015232E6,2.22028E5,2.04594E5,3.128115E5,2.8365144E5,3.23085E5,3.6515E5,4.7038E5,4.69014E5,2.322E4,2.0514E4,2.2704E4,2.2277E4,3.792025E4,4.46685E4,3.702904E4,3.2142078E4,3.6630125E4,4.751575E4,3.3028E4,5.6545E4,6.9157E4,5.254E4,9.0968E4,5.1456E4,2.538E3,1.79E3,3.4155E3,2.6305E3,4.104E3,4.72625E3,4.741E3,3.697E3,5.931125E3,1.5675875E4,1.2682E4,1.3231781E4,1.61695E4,1.5897346E4,2.6115625E4,1.0427639E4,1.1196156E4,1.19479375E4,2.6035625E4,1.187425E4,9.778E3,1.0155E4,1.008E4,8.8995E3,9.1935E3,1.43975E4,6.178E3,7.704E3,2.0015E4,5.202E3,1.35E1,1.198E3,0E0,0E0,0E0,0E0,0E0,0E0,0E0,0E0,0E0,0E0,0E0,0E0,0E0,0E0,0E0,0E0,0E0,0E0,0E0,0E0,0E0,0E0,0E0,0E0,0E0,0E0,0E0,0E0,0E0,0E0,0E0,0E0,0E0,0E0,0E0,0E0,0E0,0E0,0E0,0E0,0E0,0E0,0E0,0E0,0E0,0E0,0E0,0E0,0E0,0E0,0E0,0E0,0E0,0E0,0E0,0E0,0E0,0E0,0E0,0E0,0E0,0E0,0E0,0E0],"parents":[2147483647,0,0,1,1,2,2,3,3,4,4,5,5,6,6,7,7,8,8,9,9,10,10,11,11,12,12,13,13,14,14,15,15,16,16,17,17,18,18,19,19,20,20,21,21,22,22,23,23,24,24,25,25,26,26,27,27,28,28,29,29,30,30,31,31,32,32,33,33,34,34,35,35,36,36,37,37,38,38,39,39,40,40,41,41,42,42,43,43,44,44,45,45,46,46,47,47,48,48,49,49,50,50,51,51,52,52,53,53,54,54,55,55,56,56,57,57,58,58,59,59,60,60,61,61,62,62],"right_children":[2,4,6,8,10,12,14,16,18,20,22,24,26,28,30,32,34,36,38,40,42,44,46,48,50,52,54,56,58,60,62,64,66,68,70,72,74,76,78,80,82,84,86,88,90,92,94,96,98,100,102,104,106,108,110,112,114,116,118,120,122,124,126,-1,-1,-1,-1,-1,-1,-1,-1,-1,-1,-1,-1,-1,-1,-1,-1,-1,-1,-1,-1,-1,-1,-1,-1,-1,-1,-1,-1,-1,-1,-1,-1,-1,-1,-1,-1,-1,-1,-1,-1,-1,-1,-1,-1,-1,-1,-1,-1,-1,-1,-1,-1,-1,-1,-1,-1,-1,-1,-1,-1,-1,-1,-1,-1],"split_conditions":[2.16E1,9.7629E0,3.616E1,4.4762E0,1.57073E1,2.82E1,4.7497E1,2E0,7.177E0,1.27143E1,1.86667E1,2.46923E1,3.17105E1,4.15278E1,5.66667E1,8.07E-1,3.2247E0,5.7342E0,8.5135E0,1.10412E1,1.40667E1,1.71765E1,3.0084E5,2.30107E1,2.66E1,2.97895E1,3.38475E1,3.90455E1,4.40104E1,5.25E1,6.03333E1,3.333E-1,1.3333E0,2.5964E0,3.7589E0,3.58767E5,2.99253E5,-6.383E0,2.74878E5,3.3E5,3.3E5,3.2268E5,3.49067E5,2.944E5,2.912E5,2.01752E1,1.55E-2,2.82547E5,2.5364E5,3.062E5,2.85333E5,3.026E5,3.026E5,3.2748E5,2.7996E5,3.74E1,6.64E-1,2.68E5,4.56E1,4.96667E1,5.43458E1,9.95E-1,7.4E-1,-9.1474926E-1,-8.907118E-1,-8.650536E-1,-8.3785117E-1,-8.076877E-1,-7.7006286E-1,-7.448582E-1,-7.132592E-1,-6.5357417E-1,-7.075606E-1,-5.853472E-1,-6.313177E-1,-5.3855175E-1,-4.9487048E-1,-4.4893622E-1,-4.8726866E-1,-3.8650507E-1,-4.420695E-1,-3.088291E-1,-3.8486814E-1,-2.372825E-1,-3.0999693E-1,-1.6510482E-1,-2.454747E-1,-7.743693E-2,-1.549091E-1,-4.928566E-3,-8.155992E-2,6.967838E-2,1.438838E-1,-4.0931053E-2,5.1351972E-2,2.1483217E-1,1.4293538E-1,2.9676434E-1,2.3250175E-1,3.8250667E-1,2.6926664E-1,4.6882868E-1,3.8326347E-1,5.4333985E-1,4.4483286E-1,6.259605E-1,5.320954E-1,7.2696704E-1,6.0301495E-1,8.431403E-1,7.545556E-1,9.212406E-1,9.87198E-1,1.1059437E0,8.780055E-1,1.2349153E0,1.1267169E0,1.3253169E0,1.4068907E0,1.5036758E0,1.6311133E0,1.7478371E0,1.8484687E0,1.9933258E0,8.3749527E-1,2.2859926E0,1.8304617E0],"split_indices":[12,12,12,12,12,12,12,12,12,12,12,12,12,12,12,12,12,12,12,12,12,12,9,12,12,12,12,12,12,12,12,12,12,12,12,9,9,2,9,9,9,9,9,9,9,12,4,9,9,9,9,9,9,9,9,12,6,9,12,12,12,1,6,0,0,0,0,0,0,0,0,0,0,0,0,0,0,0,0,0,0,0,0,0,0,0,0,0,0,0,0,0,0,0,0,0,0,0,0,0,0,0,0,0,0,0,0,0,0,0,0,0,0,0,0,0,0,0,0,0,0,0,0,0,0,0,0],"split_type":[0,0,0,0,0,0,0,0,0,0,0,0,0,0,0,0,0,0,0,0,0,0,0,0,0,0,0,0,0,0,0,0,0,0,0,0,0,0,0,0,0,0,0,0,0,0,0,0,0,0,0,0,0,0,0,0,0,0,0,0,0,0,0,0,0,0,0,0,0,0,0,0,0,0,0,0,0,0,0,0,0,0,0,0,0,0,0,0,0,0,0,0,0,0,0,0,0,0,0,0,0,0,0,0,0,0,0,0,0,0,0,0,0,0,0,0,0,0,0,0,0,0,0,0,0,0,0],"sum_hessian":[8.34898E5,5.30391E5,3.04507E5,2.48907E5,2.81484E5,2.14801E5,8.9706E4,1.36943E5,1.11964E5,1.50408E5,1.31076E5,1.2186E5,9.2941E4,6.3951E4,2.5755E4,8.2255E4,5.4688E4,5.4377E4,5.7587E4,7.3647E4,7.6761E4,7.048E4,6.0596E4,6.0881E4,6.0979E4,4.8163E4,4.4778E4,3.8516E4,2.5435E4,1.9341E4,6.414E3,5.3768E4,2.8487E4,2.5883E4,2.8805E4,2.5527E4,2.885E4,2.8904E4,2.8683E4,3.1997E4,4.165E4,3.5096E4,4.1665E4,3.5299E4,3.5181E4,4.749E4,1.3106E4,2.886E4,3.2021E4,3.5142E4,2.5837E4,2.2484E4,2.5679E4,2.2373E4,2.2405E4,2.2455E4,1.6061E4,1.2736E4,1.2699E4,1.2928E4,6.413E3,3.193E3,3.221E3,3.4373E4,1.9395E4,1.2573E4,1.5914E4,1.3032E4,1.2851E4,1.2833E4,1.5972E4,2.1083E4,4.444E3,2.0899E4,7.951E3,1.9468E4,9.436E3,1.8937E4,9.746E3,2.6032E4,5.965E3,3.3099E4,8.551E3,2.7401E4,7.695E3,3.568E4,5.985E3,2.6236E4,9.063E3,2.6037E4,9.144E3,2.4564E4,2.2926E4,4.871E3,8.235E3,2.1624E4,7.236E3,2.0926E4,1.1095E4,2.8974E4,6.168E3,2.0756E4,5.081E3,1.9555E4,2.929E3,2.2315E4,3.364E3,2.0552E4,1.821E3,1.895E4,3.455E3,9.59E3,1.2865E4,1.5311E4,7.5E2,1.1073E4,1.663E3,6.459E3,6.24E3,6.517E3,6.411E3,3.191E3,3.222E3,3.191E3,2E0,3.182E3,3.9E1],"tree_param":{"num_deleted":"0","num_feature":"14","num_nodes":"127","size_leaf_vector":"1"}},{"base_weights":[-6.4445822E-3,-8.028455E0,1.330365E1,-1.3508783E1,-3.0111506E0,8.66574E0,2.4909084E1,-1.5869717E1,-1.0617168E1,-5.49612E0,-2.022752E-1,5.6270695E0,1.248794E1,2.1411013E1,3.358507E1,-1.6843224E1,-1.440754E1,-1.1938367E1,-9.372047E0,-6.9701805E0,-4.3168797E0,-1.4191206E0,1.274832E0,4.008181E0,7.16538E0,1.0838256E1,1.4758383E1,1.9327942E1,2.4550182E1,3.1253584E1,4.0577934E1,-1.7245775E1,-1.6201313E1,-1.5073479E1,-1.393667E1,-1.2607619E1,-1.1343459E1,-1.010521E1,-8.907453E0,-7.5693436E0,-6.3687043E0,-5.087232E0,-3.6026058E0,-2.204687E0,-7.7288973E-1,6.133963E-1,1.9355587E0,3.2433715E0,4.697019E0,6.4716253E0,8.207588E0,9.886742E0,1.1791014E1,1.38288765E1,1.58567505E1,1.8070242E1,2.0581827E1,2.3176691E1,2.592412E1,2.9184788E1,3.3317436E1,3.785661E1,4.3284977E1,-8.701135E-1,-8.495474E-1,-8.2467616E-1,-7.955565E-1,-7.664492E-1,-7.363077E-1,-7.167427E-1,-6.834953E-1,-6.196265E-1,-6.6251034E-1,-5.5481803E-1,-5.9923595E-1,-4.950984E-1,-5.4990584E-1,-4.378604E-1,-4.866201E-1,-3.6679843E-1,-4.166884E-1,-2.9636613E-1,-3.6418718E-1,-2.3747814E-1,-2.9566643E-1,-1.6810922E-1,-2.4534309E-1,-9.1343656E-2,-1.6901349E-1,-2.0567555E-2,-8.991637E-2,4.4293042E-2,-4.426637E-2,1.1140897E-1,1.4527877E-2,1.8351445E-1,1.2614328E-1,2.5054988E-1,1.7312509E-1,3.3954164E-1,2.3393634E-1,4.255011E-1,3.4947416E-1,5.1427203E-1,4.4014522E-1,6.0057265E-1,5.093956E-1,7.006967E-1,5.745807E-1,7.997908E-1,6.3492244E-1,9.1848963E-1,8.437908E-1,1.0369053E0,8.5589665E-1,1.1730298E0,1.0636376E0,1.2582966E0,1.3349532E0,1.3996698E0,1.4901842E0,1.6212729E0,1.7538538E0,1.8932511E0,2.6968405E-1,2.2183216E0,2.0958307E0],"categories":[],"categories_nodes":[],"categories_segments":[],"categories_sizes":[],"default_left":[0,0,0,0,0,0,0,0,0,0,0,0,0,0,0,0,0,0,0,0,0,0,0,0,0,0,0,0,0,0,0,0,0,0,0,0,0,0,0,0,0,0,0,0,0,0,0,0,0,0,0,0,0,0,0,0,0,0,0,0,0,0,0,0,0,0,0,0,0,0,0,0,0,0,0,0,0,0,0,0,0,0,0,0,0,0,0,0,0,0,0,0,0,0,0,0,0,0,0,0,0,0,0,0,0,0,0,0,0,0,0,0,0,0,0,0,0,0,0,0,0,0,0,0,0,0,0],"id":1,"left_children":[1,3,5,7,9,11,13,15,17,19,21,23,25,27,29,31,33,35,37,39,41,43,45,47,49,51,53,55,57,59,61,63,65,67,69,71,73,75,77,79,81,83,85,87,89,91,93,95,97,99,101,103,105,107,109,111,113,115,117,119,121,123,125,-1,-1,-1,-1,-1,-1,-1,-1,-1,-1,-1,-1,-1,-1,-1,-1,-1,-1,-1,-1,-1,-1,-1,-1,-1,-1,-1,-1,-1,-1,-1,-1,-1,-1,-1,-1,-1,-1,-1,-1,-1,-1,-1,-1,-1,-1,-1,-1,-1,-1,-1,-1,-1,-1,-1,-1,-1,-1,-1,-1,-1,-1,-1,-1],"loss_changes":[8.917378E7,1.4328344E7,1.690442E7,1.700116E6,1.8988508E6,2.606134E6,2.72082E6,1.94924E5,1.84052E5,2.50879E5,2.2953119E5,3.1129525E5,3.72081E5,4.17436E5,4.188E5,2.0988E4,1.6976E4,2.1481E4,1.9543E4,2.30705E4,4.4107875E4,3.5543953E4,2.5207477E4,3.2075625E4,4.62935E4,5.20685E4,4.2477E4,6.0221E4,4.75E4,8.1548E4,4.5795E4,1.721E3,2.4285E3,1.7875E3,3.2155E3,3.367E3,4.4245E3,3.947E3,4.28875E3,5.671125E3,1.2889125E4,1.073375E4,1.30328125E4,1.4029906E4,1.4242172E4,1.1772261E4,1.3889516E4,8.8704375E3,1.2404E4,2.199525E4,9.37625E3,1.235775E4,1.004025E4,9.6395E3,8.213E3,6.556E3,1.0057E4,6.396E3,6.81E3,6.2885E3,1.4037E4,6.75E2,2.9065E3,0E0,0E0,0E0,0E0,0E0,0E0,0E0,0E0,0E0,0E0,0E0,0E0,0E0,0E0,0E0,0E0,0E0,0E0,0E0,0E0,0E0,0E0,0E0,0E0,0E0,0E0,0E0,0E0,0E0,0E0,0E0,0E0,0E0,0E0,0E0,0E0,0E0,0E0,0E0,0E0,0E0,0E0,0E0,0E0,0E0,0E0,0E0,0E0,0E0,0E0,0E0,0E0,0E0,0E0,0E0,0E0,0E0,0E0,0E0,0E0,0E0,0E0,0E0,0E0],"parents":[2147483647,0,0,1,1,2,2,3,3,4,4,5,5,6,6,7,7,8,8,9,9,10,10,11,11,12,12,13,13,14,14,15,15,16,16,17,17,18,18,19,19,20,20,21,21,22,22,23,23,24,24,25,25,26,26,27,27,28,28,29,29,30,30,31,31,32,32,33,33,34,34,35,35,36,36,37,37,38,38,39,39,40,40,41,41,42,42,43,43,44,44,45,45,46,46,47,47,48,48,49,49,50,50,51,51,52,52,53,53,54,54,55,55,56,56,57,57,58,58,59,59,60,60,61,61,62,62],"right_children":[2,4,6,8,10,12,14,16,18,20,22,24,26,28,30,32,34,36,38,40,42,44,46,48,50,52,54,56,58,60,62,64,66,68,70,72,74,76,78,80,82,84,86,88,90,92,94,96,98,100,102,104,106,108,110,112,114,116,118,120,122,124,126,-1,-1,-1,-1,-1,-1,-1,-1,-1,-1,-1,-1,-1,-1,-1,-1,-1,-1,-1,-1,-1,-1,-1,-1,-1,-1,-1,-1,-1,-1,-1,-1,-1,-1,-1,-1,-1,-1,-1,-1,-1,-1,-1,-1,-1,-1,-1,-1,-1,-1,-1,-1,-1,-1,-1,-1,-1,-1,-1,-1,-1,-1,-1,-1],"split_conditions":[2.10805E1,9.7629E0,3.616E1,4.4762E0,1.54561E1,2.78148E1,4.7497E1,2E0,7.177E0,1.22727E1,1.83333E1,2.41515E1,3.19645E1,4.15278E1,5.66667E1,7.291E-1,3.0551E0,5.7342E0,8.2791E0,1.10412E1,1.3825E1,1.675E1,1.96452E1,2.25333E1,2.62533E1,2.97895E1,3.42188E1,3.8561E1,4.40104E1,5.08994E1,6.03333E1,2.632E-1,1.3333E0,2.5964E0,3.5769E0,3.20413E5,2.99253E5,3.49067E5,3.52227E5,3.062E5,2.812E5,2.944E5,3.43133E5,3.0084E5,2.912E5,3.32493E5,3.35018E5,2.51797E5,2.99253E5,3.1616E5,2.85333E5,2.6044E5,3.0808E5,3.32493E5,7.4E-1,2.66867E5,6.64E-1,2.68E5,4.56E1,4.85217E1,5.43458E1,9.95E-1,4.2E1,-8.701135E-1,-8.495474E-1,-8.2467616E-1,-7.955565E-1,-7.664492E-1,-7.363077E-1,-7.167427E-1,-6.834953E-1,-6.196265E-1,-6.6251034E-1,-5.5481803E-1,-5.9923595E-1,-4.950984E-1,-5.4990584E-1,-4.378604E-1,-4.866201E-1,-3.6679843E-1,-4.166884E-1,-2.9636613E-1,-3.6418718E-1,-2.3747814E-1,-2.9566643E-1,-1.6810922E-1,-2.4534309E-1,-9.1343656E-2,-1.6901349E-1,-2.0567555E-2,-8.991637E-2,4.4293042E-2,-4.426637E-2,1.1140897E-1,1.4527877E-2,1.8351445E-1,1.2614328E-1,2.5054988E-1,1.7312509E-1,3.3954164E-1,2.3393634E-1,4.255011E-1,3.4947416E-1,5.1427203E-1,4.4014522E-1,6.0057265E-1,5.093956E-1,7.006967E-1,5.745807E-1,7.997908E-1,6.3492244E-1,9.1848963E-1,8.437908E-1,1.0369053E0,8.5589665E-1,1.1730298E0,1.0636376E0,1.2582966E0,1.3349532E0,1.3996698E0,1.4901842E0,1.6212729E0,1.7538538E0,1.8932511E0,2.6968405E-1,2.2183216E0,2.0958307E0],"split_indices":[12,12,12,12,12,12,12,12,12,12,12,12,12,12,12,12,12,12,12,12,12,12,12,12,12,12,12,12,12,12,12,12,12,12,12,9,9,9,9,9,9,9,9,9,9,9,9,9,9,9,9,9,9,9,6,9,6,9,12,12,12,1,13,0,0,0,0,0,0,0,0,0,0,0,0,0,0,0,0,0,0,0,0,0,0,0,0,0,0,0,0,0,0,0,0,0,0,0,0,0,0,0,0,0,0,0,0,0,0,0,0,0,0,0,0,0,0,0,0,0,0,0,0,0,0,0,0],"split_type":[0,0,0,0,0,0,0,0,0,0,0,0,0,0,0,0,0,0,0,0,0,0,0,0,0,0,0,0,0,0,0,0,0,0,0,0,0,0,0,0,0,0,0,0,0,0,0,0,0,0,0,0,0,0,0,0,0,0,0,0,0,0,0,0,0,0,0,0,0,0,0,0,0,0,0,0,0,0,0,0,0,0,0,0,0,0,0,0,0,0,0,0,0,0,0,0,0,0,0,0,0,0,0,0,0,0,0,0,0,0,0,0,0,0,0,0,0,0,0,0,0,0,0,0,0,0,0],"sum_hessian":[8.35164E5,5.21098E5,3.14066E5,2.49056E5,2.72042E5,2.24393E5,8.9673E4,1.37107E5,1.11949E5,1.44343E5,1.27699E5,1.25011E5,9.9382E4,6.3909E4,2.5764E4,8.2301E4,5.4806E4,5.4311E4,5.7638E4,6.415E4,8.0193E4,7.0018E4,5.7681E4,6.0912E4,6.4099E4,5.7563E4,4.1819E4,3.8421E4,2.5488E4,1.9326E4,6.438E3,5.0565E4,3.1736E4,2.2688E4,3.2118E4,2.5549E4,2.8762E4,2.2349E4,3.5289E4,3.2131E4,3.2019E4,3.8579E4,4.1614E4,3.1601E4,3.8417E4,2.8826E4,2.8855E4,2.8867E4,3.2045E4,3.8487E4,2.5612E4,2.8806E4,2.8757E4,2.2658E4,1.9161E4,1.9189E4,1.9232E4,1.2755E4,1.2733E4,9.659E3,9.667E3,3.218E3,3.22E3,3.1285E4,1.928E4,1.5785E4,1.5951E4,1.3047E4,9.641E3,1.2864E4,1.9254E4,1.9157E4,6.392E3,2.0775E4,7.987E3,1.8215E4,4.134E3,2.9862E4,5.427E3,2.4624E4,7.507E3,2.1605E4,1.0414E4,2.739E4,1.1189E4,3.514E4,6.474E3,2.3917E4,7.684E3,2.8404E4,1.0013E4,2.4392E4,4.434E3,2.4497E4,4.358E3,1.8124E4,1.0743E4,2.5545E4,6.5E3,3.2668E4,5.819E3,2.0513E4,5.099E3,2.1053E4,7.753E3,2.5275E4,3.482E3,2.0991E4,1.667E3,1.8349E4,8.12E2,1.533E4,3.859E3,1.8397E4,8.35E2,1.109E4,1.665E3,6.453E3,6.28E3,3.318E3,6.341E3,6.428E3,3.239E3,3.217E3,1E0,1.781E3,1.439E3],"tree_param":{"num_deleted":"0","num_feature":"14","num_nodes":"127","size_leaf_vector":"1"}},{"base_weights":[5.617143E-3,1.322732E0,-4.6937103E0,2.2538023E0,-3.0474503E0,-2.3040695E0,-6.5426064E0,-5.460526E-1,3.6400497E0,-5.302794E0,-5.040934E-1,-5.976373E0,-1.6333379E0,-4.4190307E0,-8.154079E0,-2.2305021E0,7.2559243E-1,8.95756E-1,5.063595E0,-1.671722E0,-6.1622777E0,8.717524E-1,-4.8127995E0,-3.200855E0,-7.2981877E0,-5.155564E-1,-3.2490907E0,-3.3632438E0,-6.2256646E0,-6.301663E0,-9.894069E0,3.6806688E0,-2.833453E0,1.4112823E0,-2.2186575E0,5.3620915E0,-9.447505E-1,6.1421504E0,1.3242674E0,-5.4958904E-1,-1.1946998E1,-3.9569933E0,-7.2828226E0,3.3315232E0,-2.4348426E0,-3.1034875E0,-7.4356904E0,-1.6688429E0,-4.7742243E0,-6.2141204E0,-8.418294E0,1.0366423E0,-2.4724176E0,-1.1073678E0,-4.1638417E0,-4.4444343E-1,-3.6410394E0,-5.6804466E0,-8.805598E0,-4.9267387E0,-7.233215E0,-7.5702205E0,-1.0582332E1,6.8640274E-1,8.805194E-2,-2.936545E-1,-1.0014959E-1,1.9351233E-2,1.8582876E-1,-2.3719695E-1,-3.2801677E-2,3.902317E-1,1.1217635E-1,6.302189E-2,-1.8006189E-1,3.821002E-1,1.5709153E-1,3.1718406E-1,2.9387046E-2,-4.4473078E-2,4.2417607E-1,-6.773222E-1,-4.832893E-1,-1.7932177E-1,-7.02864E-1,-4.1770038E-1,-2.8119704E-1,-1.9077314E-2,2.0571771E-1,-5.2747156E-2,-2.5279275E-1,-5.490633E-1,-1.3834281E-1,-3.9078212E-1,2.2581147E-1,-4.5882154E-2,-3.5460663E-1,-2.3031683E-1,-6.687669E-1,-3.7830552E-1,-2.267829E-1,-4.7637495E-1,-3.19049E-1,1.04010575E-1,-6.40158E-2,-1.4875512E-1,5.9131827E-2,-3.0037835E-2,-1.8416591E-1,-1.8067528E-1,-3.0407557E-1,7.2041834E-3,-3.895224E-1,-1.3960621E-1,-2.2441733E-1,-3.0393255E-1,-1.52565E-1,-3.0034187E-1,-5.465133E-1,-2.1336229E-1,-3.746261E-1,-4.8884305E-1,-3.2251567E-1,-3.0473012E-1,-4.4543925E-1,-4.6797734E-1,-5.718469E-1],"categories":[],"categories_nodes":[],"categories_segments":[],"categories_sizes":[],"default_left":[0,0,0,0,0,0,0,0,0,0,0,0,0,0,0,0,0,0,0,0,0,0,0,0,0,0,0,0,0,0,0,0,0,0,0,0,0,0,0,0,0,0,0,0,0,0,0,0,0,0,0,0,0,0,0,0,0,0,0,0,0,0,0,0,0,0,0,0,0,0,0,0,0,0,0,0,0,0,0,0,0,0,0,0,0,0,0,0,0,0,0,0,0,0,0,0,0,0,0,0,0,0,0,0,0,0,0,0,0,0,0,0,0,0,0,0,0,0,0,0,0,0,0,0,0,0,0],"id":2,"left_children":[1,3,5,7,9,11,13,15,17,19,21,23,25,27,29,31,33,35,37,39,41,43,45,47,49,51,53,55,57,59,61,63,65,67,69,71,73,75,77,79,81,83,85,87,89,91,93,95,97,99,101,103,105,107,109,111,113,115,117,119,121,123,125,-1,-1,-1,-1,-1,-1,-1,-1,-1,-1,-1,-1,-1,-1,-1,-1,-1,-1,-1,-1,-1,-1,-1,-1,-1,-1,-1,-1,-1,-1,-1,-1,-1,-1,-1,-1,-1,-1,-1,-1,-1,-1,-1,-1,-1,-1,-1,-1,-1,-1,-1,-1,-1,-1,-1,-1,-1,-1,-1,-1,-1,-1,-1,-1],"loss_changes":[5.16764E6,2.6534565E6,8.0752075E5,2.0865418E6,6.56981E5,1.9637562E5,3.525965E5,3.8133722E5,1.404677E6,1.8943738E5,3.191206E5,4.5149594E4,1.2175917E5,8.4784875E4,1.88771E5,2.7296334E5,2.0480256E5,1.009559E6,9.548345E5,1.3397467E5,1.2126625E5,3.318779E5,5.8390344E4,9.571043E3,1.0074719E4,1.2104749E5,5.4005062E4,2.27535E4,2.3015812E4,3.63125E4,4.823525E4,1.3670325E5,1.7541456E5,1.9428392E5,7.561533E4,2.729838E5,5.0949706E5,8.26867E5,1.9594103E5,3.2173043E4,4.043125E3,6.1854547E4,5.778625E4,6.801267E4,6.294753E4,2.0893164E4,2.3376812E4,8.20255E3,2.768664E3,9.591922E3,9.202125E3,5.373821E4,3.2392133E4,1.07666875E4,2.0364469E4,1.0550031E4,1.8419312E4,1.41569375E4,1.6935219E4,1.9368156E4,3.3621875E4,1.35865625E4,2.42445E4,0E0,0E0,0E0,0E0,0E0,0E0,0E0,0E0,0E0,0E0,0E0,0E0,0E0,0E0,0E0,0E0,0E0,0E0,0E0,0E0,0E0,0E0,0E0,0E0,0E0,0E0,0E0,0E0,0E0,0E0,0E0,0E0,0E0,0E0,0E0,0E0,0E0,0E0,0E0,0E0,0E0,0E0,0E0,0E0,0E0,0E0,0E0,0E0,0E0,0E0,0E0,0E0,0E0,0E0,0E0,0E0,0E0,0E0,0E0,0E0,0E0,0E0,0E0,0E0],"parents":[2147483647,0,0,1,1,2,2,3,3,4,4,5,5,6,6,7,7,8,8,9,9,10,10,11,11,12,12,13,13,14,14,15,15,16,16,17,17,18,18,19,19,20,20,21,21,22,22,23,23,24,24,25,25,26,26,27,27,28,28,29,29,30,30,31,31,32,32,33,33,34,34,35,35,36,36,37,37,38,38,39,39,40,40,41,41,42,42,43,43,44,44,45,45,46,46,47,47,48,48,49,49,50,50,51,51,52,52,53,53,54,54,55,55,56,56,57,57,58,58,59,59,60,60,61,61,62,62],"right_children":[2,4,6,8,10,12,14,16,18,20,22,24,26,28,30,32,34,36,38,40,42,44,46,48,50,52,54,56,58,60,62,64,66,68,70,72,74,76,78,80,82,84,86,88,90,92,94,96,98,100,102,104,106,108,110,112,114,116,118,120,122,124,126,-1,-1,-1,-1,-1,-1,-1,-1,-1,-1,-1,-1,-1,-1,-1,-1,-1,-1,-1,-1,-1,-1,-1,-1,-1,-1,-1,-1,-1,-1,-1,-1,-1,-1,-1,-1,-1,-1,-1,-1,-1,-1,-1,-1,-1,-1,-1,-1,-1,-1,-1,-1,-1,-1,-1,-1,-1,-1,-1,-1,-1,-1,-1,-1],"split_conditions":[2.99253E5,1.45E2,1.9E-1,4.75E-1,-8.051E0,-1.1793E1,1.2402E2,3.45E-1,-8.405E0,1E-1,2.62E-2,3.96E-2,1.4E-3,5.26E-2,6.21E-1,-2.379E1,5.92E-1,1.9E1,8.03E-1,1.345E3,3.9E-2,6.59E-1,2.3E2,6.8E1,6.3E-2,5.17E-1,4.01E-2,8E0,1.36E2,7.27E-1,2.1E1,7E0,1.37733E5,1.43244E2,-7.078E0,5.34E-1,5.48E-1,2.3216E5,1E1,9.93E-1,2.03E-1,4.058E3,4.24E-1,3.91E-1,2.49E2,8.4741E4,1.061E3,4.8328E5,4.058E3,4.39E-1,-1.3507E1,8.12E-1,2.19E-1,4.32E5,6.59E-1,6.2636E5,3.8494E5,8.15E-1,4.62E-1,5.43E-2,-8.545E0,3.9375E5,5.5E-2,6.8640274E-1,8.805194E-2,-2.936545E-1,-1.0014959E-1,1.9351233E-2,1.8582876E-1,-2.3719695E-1,-3.2801677E-2,3.902317E-1,1.1217635E-1,6.302189E-2,-1.8006189E-1,3.821002E-1,1.5709153E-1,3.1718406E-1,2.9387046E-2,-4.4473078E-2,4.2417607E-1,-6.773222E-1,-4.832893E-1,-1.7932177E-1,-7.02864E-1,-4.1770038E-1,-2.8119704E-1,-1.9077314E-2,2.0571771E-1,-5.2747156E-2,-2.5279275E-1,-5.490633E-1,-1.3834281E-1,-3.9078212E-1,2.2581147E-1,-4.5882154E-2,-3.5460663E-1,-2.3031683E-1,-6.687669E-1,-3.7830552E-1,-2.267829E-1,-4.7637495E-1,-3.19049E-1,1.04010575E-1,-6.40158E-2,-1.4875512E-1,5.9131827E-2,-3.0037835E-2,-1.8416591E-1,-1.8067528E-1,-3.0407557E-1,7.2041834E-3,-3.895224E-1,-1.3960621E-1,-2.2441733E-1,-3.0393255E-1,-1.52565E-1,-3.0034187E-1,-5.465133E-1,-2.1336229E-1,-3.746261E-1,-4.8884305E-1,-3.2251567E-1,-3.0473012E-1,-4.4543925E-1,-4.6797734E-1,-5.718469E-1],"split_indices":[9,13,5,0,2,2,8,0,2,7,5,3,5,3,0,2,7,13,7,13,3,7,13,13,3,7,3,13,13,1,13,13,9,8,2,7,7,9,13,1,5,13,1,0,13,9,13,9,13,0,2,1,3,9,7,9,9,0,0,3,2,9,3,0,0,0,0,0,0,0,0,0,0,0,0,0,0,0,0,0,0,0,0,0,0,0,0,0,0,0,0,0,0,0,0,0,0,0,0,0,0,0,0,0,0,0,0,0,0,0,0,0,0,0,0,0,0,0,0,0,0,0,0,0,0,0,0],"split_type":[0,0,0,0,0,0,0,0,0,0,0,0,0,0,0,0,0,0,0,0,0,0,0,0,0,0,0,0,0,0,0,0,0,0,0,0,0,0,0,0,0,0,0,0,0,0,0,0,0,0,0,0,0,0,0,0,0,0,0,0,0,0,0,0,0,0,0,0,0,0,0,0,0,0,0,0,0,0,0,0,0,0,0,0,0,0,0,0,0,0,0,0,0,0,0,0,0,0,0,0,0,0,0,0,0,0,0,0,0,0,0,0,0,0,0,0,0,0,0,0,0,0,0,0,0,0,0],"sum_hessian":[8.34895E5,6.52121E5,1.82774E5,5.37588E5,1.14533E5,7.9729E4,1.03045E5,1.78025E5,3.59563E5,6.0703E4,5.383E4,1.2312E4,6.7417E4,4.446E4,5.8585E4,7.6582E4,1.01443E5,1.22811E5,2.36752E5,1.1619E4,4.9084E4,4.0802E4,1.3028E4,3.973E3,8.339E3,3.985E4,2.7567E4,2.8063E4,1.6397E4,2.8378E4,3.0207E4,7.088E3,6.9494E4,8.2281E4,1.9162E4,3.5839E4,8.6972E4,1.83751E5,5.3001E4,1.0476E4,1.143E3,1.6539E4,3.2545E4,2.3397E4,1.7405E4,7.889E3,5.139E3,2.014E3,1.959E3,4.241E3,4.098E3,2.2223E4,1.7627E4,8.251E3,1.9316E4,2.439E3,2.5624E4,1.3539E4,2.858E3,1.1464E4,1.6914E4,6.905E3,2.3302E4,1.136E3,5.952E3,1.4911E4,5.4583E4,5.697E4,2.5311E4,7.324E3,1.1838E4,2.0097E4,1.5742E4,4.7523E4,3.9449E4,1.22508E5,6.1243E4,6.781E3,4.622E4,1.0097E4,3.79E2,6.69E2,4.74E2,1.5955E4,5.84E2,1.9773E4,1.2772E4,4.074E3,1.9323E4,1.1403E4,6.002E3,3.22E2,7.567E3,4.981E3,1.58E2,1.77E3,2.44E2,1.923E3,3.6E1,2.347E3,1.894E3,2.651E3,1.447E3,1.5322E4,6.901E3,1.5496E4,2.131E3,6.896E3,1.355E3,1.5011E4,4.305E3,2.259E3,1.8E2,1.2802E4,1.2822E4,1.1757E4,1.782E3,1.235E3,1.623E3,9.122E3,2.342E3,3.978E3,1.2936E4,3.287E3,3.618E3,9.591E3,1.3711E4],"tree_param":{"num_deleted":"0","num_feature":"14","num_nodes":"127","size_leaf_vector":"1"}},{"base_weights":[-1.2095838E-3,-7.4931993E0,1.2653425E1,-1.2659649E1,-2.706085E0,8.267692E0,2.3455757E1,-1.4834266E1,-9.796623E0,-5.113838E0,-1.1815869E-1,5.6367216E0,1.2124147E1,2.0165964E1,3.1627172E1,-1.5835146E1,-1.3345548E1,-1.1035067E1,-8.700249E0,-6.280116E0,-3.8304253E0,-1.1941701E0,1.4037592E0,4.0983043E0,7.2472024E0,1.05249E1,1.3955311E1,1.8197496E1,2.313801E1,2.9428825E1,3.8266403E1,-1.6219141E1,-1.5072221E1,-1.4020681E1,-1.2870671E1,-1.1519348E1,-1.0406476E1,-9.267474E0,-8.1350355E0,-6.9106197E0,-5.6089554E0,-4.404021E0,-3.2071793E0,-1.9232302E0,-4.7719452E-1,8.132654E-1,1.9232062E0,3.3023787E0,4.8245134E0,6.4557986E0,8.033314E0,9.920834E0,1.1442561E1,1.30612335E1,1.501141E1,1.720217E1,1.9584589E1,2.1829214E1,2.4441504E1,2.8023766E1,3.2274605E1,3.5660397E1,4.087267E1,-8.214537E-1,-7.9492164E-1,-7.6400954E-1,-7.403941E-1,-7.179271E-1,-6.896139E-1,-6.5626067E-1,-6.2949383E-1,-5.9435314E-1,-5.6109875E-1,-5.2637327E-1,-4.8545894E-1,-4.7636175E-1,-4.3550086E-1,-4.2191038E-1,-3.9455816E-1,-3.6272857E-1,-3.2805404E-1,-2.9803964E-1,-2.6531687E-1,-2.3326297E-1,-1.9326898E-1,-1.7734282E-1,-1.4077325E-1,-1.0996082E-1,-6.0408134E-2,-3.2824777E-2,3.3157814E-2,2.9291397E-2,7.518206E-2,1.1607114E-1,7.454358E-2,1.411465E-1,1.8784648E-1,2.2722618E-1,2.7530476E-1,3.073567E-1,3.5515425E-1,3.774092E-1,4.2625403E-1,4.7247553E-1,5.148577E-1,5.84504E-1,5.406202E-1,5.9991795E-1,6.6228694E-1,7.7347535E-1,7.1053135E-1,8.2475895E-1,8.8656867E-1,9.5447224E-1,1.0161151E0,1.0584567E0,1.1244383E0,1.1851629E0,1.2601961E0,1.3452829E0,1.4578856E0,1.5698951E0,1.6568148E0,1.6339549E0,1.7903626E0,2.087527E0,1.9872477E0],"categories":[],"categories_nodes":[],"categories_segments":[],"categories_sizes":[],"default_left":[0,0,0,0,0,0,0,0,0,0,0,0,0,0,0,0,0,0,0,0,0,0,0,0,0,0,0,0,0,0,0,0,0,0,0,0,0,0,0,0,0,0,0,0,0,0,0,0,0,0,0,0,0,0,0,0,0,0,0,0,0,0,0,0,0,0,0,0,0,0,0,0,0,0,0,0,0,0,0,0,0,0,0,0,0,0,0,0,0,0,0,0,0,0,0,0,0,0,0,0,0,0,0,0,0,0,0,0,0,0,0,0,0,0,0,0,0,0,0,0,0,0,0,0,0,0,0],"id":3,"left_children":[1,3,5,7,9,11,13,15,17,19,21,23,25,27,29,31,33,35,37,39,41,43,45,47,49,51,53,55,57,59,61,63,65,67,69,71,73,75,77,79,81,83,85,87,89,91,93,95,97,99,101,103,105,107,109,111,113,115,117,119,121,123,125,-1,-1,-1,-1,-1,-1,-1,-1,-1,-1,-1,-1,-1,-1,-1,-1,-1,-1,-1,-1,-1,-1,-1,-1,-1,-1,-1,-1,-1,-1,-1,-1,-1,-1,-1,-1,-1,-1,-1,-1,-1,-1,-1,-1,-1,-1,-1,-1,-1,-1,-1,-1,-1,-1,-1,-1,-1,-1,-1,-1,-1,-1,-1,-1],"loss_changes":[7.916141E7,1.2971164E7,1.47101E7,1.570276E6,1.6962631E6,2.240633E6,2.409628E6,2.13388E5,1.47749E5,2.1106E5,2.1486312E5,3.25231E5,2.62131E5,3.73574E5,3.7447E5,2.4866E4,1.8298E4,1.54445E4,1.8443E4,3.12255E4,2.3988625E4,4.0176773E4,1.6667086E4,3.8794375E4,3.984975E4,2.639E4,3.9226E4,5.2762E4,4.2914E4,7.6414E4,4.1998E4,3.577E3,1.352E3,1.638E3,2.2545E3,3.023E3,1.7755E3,4.0905E3,2.073E3,4.53175E3,3.77925E3,4.901375E3,4.272E3,7.5183125E3,7.9243125E3,3.9926973E3,4.973758E3,6.9715625E3,6.6748125E3,6.343E3,7.610875E3,5.018E3,2.833E3,4.276E3,6.799E3,8.0885E3,5.4785E3,5.0605E3,6.58E3,1.564E4,3.783E3,2.3375E2,1.5005E3,0E0,0E0,0E0,0E0,0E0,0E0,0E0,0E0,0E0,0E0,0E0,0E0,0E0,0E0,0E0,0E0,0E0,0E0,0E0,0E0,0E0,0E0,0E0,0E0,0E0,0E0,0E0,0E0,0E0,0E0,0E0,0E0,0E0,0E0,0E0,0E0,0E0,0E0,0E0,0E0,0E0,0E0,0E0,0E0,0E0,0E0,0E0,0E0,0E0,0E0,0E0,0E0,0E0,0E0,0E0,0E0,0E0,0E0,0E0,0E0,0E0,0E0,0E0,0E0],"parents":[2147483647,0,0,1,1,2,2,3,3,4,4,5,5,6,6,7,7,8,8,9,9,10,10,11,11,12,12,13,13,14,14,15,15,16,16,17,17,18,18,19,19,20,20,21,21,22,22,23,23,24,24,25,25,26,26,27,27,28,28,29,29,30,30,31,31,32,32,33,33,34,34,35,35,36,36,37,37,38,38,39,39,40,40,41,41,42,42,43,43,44,44,45,45,46,46,47,47,48,48,49,49,50,50,51,51,52,52,53,53,54,54,55,55,56,56,57,57,58,58,59,59,60,60,61,61,62,62],"right_children":[2,4,6,8,10,12,14,16,18,20,22,24,26,28,30,32,34,36,38,40,42,44,46,48,50,52,54,56,58,60,62,64,66,68,70,72,74,76,78,80,82,84,86,88,90,92,94,96,98,100,102,104,106,108,110,112,114,116,118,120,122,124,126,-1,-1,-1,-1,-1,-1,-1,-1,-1,-1,-1,-1,-1,-1,-1,-1,-1,-1,-1,-1,-1,-1,-1,-1,-1,-1,-1,-1,-1,-1,-1,-1,-1,-1,-1,-1,-1,-1,-1,-1,-1,-1,-1,-1,-1,-1,-1,-1,-1,-1,-1,-1,-1,-1,-1,-1,-1,-1,-1,-1,-1,-1,-1,-1],"split_conditions":[2.12375E1,9.8947E0,3.616E1,4.7667E0,1.54561E1,2.84286E1,4.7497E1,2.1038E0,7.384E0,1.28571E1,1.86667E1,2.46923E1,3.19645E1,4.15278E1,5.66667E1,9.302E-1,3.3088E0,6.2162E0,8.6603E0,1.14444E1,1.42E1,1.70253E1,1.984E1,2.2875E1,2.64237E1,3.05E1,3.42188E1,3.90455E1,4.40104E1,5.25E1,6.03333E1,3.333E-1,1.566E0,2.5964E0,4.0515E0,5.4286E0,1.50137E2,-6.248E0,9.2069E0,1.06375E1,1.20476E1,-6.248E0,-7.221E0,-5.498E0,-4.227E0,-5.145E0,4.9E-2,-7.147E0,-5.243E0,-5.562E0,2.74019E1,2.93333E1,8.06E-2,3.16E-3,3.36E-3,3.74E1,4.05E1,4.2766E1,4.56E1,4.96667E1,5.43458E1,2E-3,4.2E1,-8.214537E-1,-7.9492164E-1,-7.6400954E-1,-7.403941E-1,-7.179271E-1,-6.896139E-1,-6.5626067E-1,-6.2949383E-1,-5.9435314E-1,-5.6109875E-1,-5.2637327E-1,-4.8545894E-1,-4.7636175E-1,-4.3550086E-1,-4.2191038E-1,-3.9455816E-1,-3.6272857E-1,-3.2805404E-1,-2.9803964E-1,-2.6531687E-1,-2.3326297E-1,-1.9326898E-1,-1.7734282E-1,-1.4077325E-1,-1.0996082E-1,-6.0408134E-2,-3.2824777E-2,3.3157814E-2,2.9291397E-2,7.518206E-2,1.1607114E-1,7.454358E-2,1.411465E-1,1.8784648E-1,2.2722618E-1,2.7530476E-1,3.073567E-1,3.5515425E-1,3.774092E-1,4.2625403E-1,4.7247553E-1,5.148577E-1,5.84504E-1,5.406202E-1,5.9991795E-1,6.6228694E-1,7.7347535E-1,7.1053135E-1,8.2475895E-1,8.8656867E-1,9.5447224E-1,1.0161151E0,1.0584567E0,1.1244383E0,1.1851629E0,1.2601961E0,1.3452829E0,1.4578856E0,1.5698951E0,1.6568148E0,1.6339549E0,1.7903626E0,2.087527E0,1.9872477E0],"split_indices":[12,12,12,12,12,12,12,12,12,12,12,12,12,12,12,12,12,12,12,12,12,12,12,12,12,12,12,12,12,12,12,12,12,12,12,12,8,2,12,12,12,2,2,2,2,2,3,2,2,2,12,12,3,4,5,12,12,12,12,12,12,4,13,0,0,0,0,0,0,0,0,0,0,0,0,0,0,0,0,0,0,0,0,0,0,0,0,0,0,0,0,0,0,0,0,0,0,0,0,0,0,0,0,0,0,0,0,0,0,0,0,0,0,0,0,0,0,0,0,0,0,0,0,0,0,0,0],"split_type":[0,0,0,0,0,0,0,0,0,0,0,0,0,0,0,0,0,0,0,0,0,0,0,0,0,0,0,0,0,0,0,0,0,0,0,0,0,0,0,0,0,0,0,0,0,0,0,0,0,0,0,0,0,0,0,0,0,0,0,0,0,0,0,0,0,0,0,0,0,0,0,0,0,0,0,0,0,0,0,0,0,0,0,0,0,0,0,0,0,0,0,0,0,0,0,0,0,0,0,0,0,0,0,0,0,0,0,0,0,0,0,0,0,0,0,0,0,0,0,0,0,0,0,0,0,0,0],"sum_hessian":[8.3496E5,5.24461E5,3.10499E5,2.52236E5,2.72225E5,2.2084E5,8.9659E4,1.4335E5,1.08886E5,1.41021E5,1.31204E5,1.3128E5,8.956E4,6.3926E4,2.5733E4,8.5714E4,5.7636E4,5.1126E4,5.776E4,7.388E4,6.7141E4,7.6862E4,5.4342E4,6.7144E4,6.4136E4,4.7811E4,4.1749E4,3.846E4,2.5466E4,1.9336E4,6.397E3,5.7003E4,2.8711E4,2.3788E4,3.3848E4,2.8868E4,2.2258E4,2.8821E4,2.8939E4,3.8089E4,3.5791E4,3.496E4,3.2181E4,3.8109E4,3.8753E4,2.5433E4,2.8909E4,3.2037E4,3.5107E4,3.1965E4,3.2171E4,2.8839E4,1.8972E4,2.2616E4,1.9133E4,2.24E4,1.606E4,1.2716E4,1.275E4,1.2952E4,6.384E3,3.206E3,3.191E3,3.4421E4,2.2582E4,1.6037E4,1.2674E4,9.57E3,1.4218E4,1.773E4,1.6118E4,1.289E4,1.5978E4,1.8955E4,3.303E3,1.9649E4,9.172E3,1.2886E4,1.6053E4,1.9188E4,1.8901E4,1.6541E4,1.925E4,2.3537E4,1.1423E4,1.7231E4,1.495E4,2.7495E4,1.0614E4,3.3488E4,5.265E3,1.9132E4,6.301E3,1.5046E4,1.3863E4,1.5595E4,1.6442E4,2.489E4,1.0217E4,2.1651E4,1.0314E4,1.6203E4,1.5968E4,1.2815E4,1.6024E4,1.3609E4,5.363E3,3.355E3,1.9261E4,1.2159E4,6.974E3,9.603E3,1.2797E4,9.626E3,6.434E3,6.372E3,6.344E3,6.494E3,6.256E3,6.534E3,6.418E3,3.183E3,3.201E3,1.61E2,3.045E3,1.774E3,1.417E3],"tree_param":{"num_deleted":"0","num_feature":"14","num_nodes":"127","size_leaf_vector":"1"}},{"base_weights":[6.3949535E-3,-7.009344E0,1.2224409E1,-1.2026361E1,-2.4622464E0,8.021616E0,2.2290703E1,-1.4090973E1,-9.30822E0,-4.8207283E0,5.0031837E-2,5.5024757E0,1.1528609E1,1.9152668E1,3.00694E1,-1.503662E1,-1.2682478E1,-1.0432109E1,-8.18793E0,-6.1528788E0,-3.750495E0,-1.096375E0,1.4579749E0,4.174902E0,7.05717E0,1.0108031E1,1.342527E1,1.7278801E1,2.198443E1,2.7969622E1,3.6430347E1,-1.54028845E1,-1.4309444E1,-1.3312112E1,-1.2238631E1,-1.0910888E1,-9.745465E0,-8.601146E0,-7.599855E0,-6.6520524E0,-5.5555453E0,-4.4918213E0,-3.1549003E0,-1.7978497E0,-4.5425832E-1,8.3126146E-1,2.01548E0,3.3511677E0,4.7918787E0,6.432179E0,7.8386393E0,9.418279E0,1.1001233E1,1.26740265E1,1.4475806E1,1.6329573E1,1.8600458E1,2.1061647E1,2.353444E1,2.6630663E1,3.0676172E1,3.3948383E1,3.8877808E1,-7.8037244E-1,-7.544451E-1,-7.256014E-1,-7.0264274E-1,-6.7864984E-1,-6.5036505E-1,-6.248316E-1,-5.976781E-1,-5.647532E-1,-5.3261244E-1,-6.851991E-1,-4.858863E-1,-4.2233324E-1,-4.6499825E-1,-6.388183E-1,-3.790065E-1,-3.1081012E-1,-3.467375E-1,-2.6709622E-1,-3.3782506E-1,-2.1091357E-1,-2.5812817E-1,-1.4802775E-1,-2.1354774E-1,-7.4346565E-2,-1.3521183E-1,-7.1412832E-3,-5.8628768E-2,6.1278135E-2,1.1237293E-2,1.1157651E-1,3.518025E-2,1.7350586E-1,7.111308E-2,2.4981959E-1,1.5251839E-1,3.3470494E-1,2.611877E-1,4.080727E-1,3.5041824E-1,4.811108E-1,4.2871156E-1,5.668145E-1,5.065795E-1,6.118106E-1,6.620513E-1,7.329322E-1,5.567418E-1,7.8281504E-1,8.415126E-1,9.3906176E-1,7.44054E-1,1.0231844E0,1.0977973E0,1.1972497E0,1.1156405E0,1.2790891E0,1.3850535E0,1.494127E0,1.5728034E0,1.6761801E0,1.7442387E0,1.9856237E0,1.8893603E0],"categories":[],"categories_nodes":[],"categories_segments":[],"categories_sizes":[],"default_left":[0,0,0,0,0,0,0,0,0,0,0,0,0,0,0,0,0,0,0,0,0,0,0,0,0,0,0,0,0,0,0,0,0,0,0,0,0,0,0,0,0,0,0,0,0,0,0,0,0,0,0,0,0,0,0,0,0,0,0,0,0,0,0,0,0,0,0,0,0,0,0,0,0,0,0,0,0,0,0,0,0,0,0,0,0,0,0,0,0,0,0,0,0,0,0,0,0,0,0,0,0,0,0,0,0,0,0,0,0,0,0,0,0,0,0,0,0,0,0,0,0,0,0,0,0,0,0],"id":4,"left_children":[1,3,5,7,9,11,13,15,17,19,21,23,25,27,29,31,33,35,37,39,41,43,45,47,49,51,53,55,57,59,61,63,65,67,69,71,73,75,77,79,81,83,85,87,89,91,93,95,97,99,101,103,105,107,109,111,113,115,117,119,121,123,125,-1,-1,-1,-1,-1,-1,-1,-1,-1,-1,-1,-1,-1,-1,-1,-1,-1,-1,-1,-1,-1,-1,-1,-1,-1,-1,-1,-1,-1,-1,-1,-1,-1,-1,-1,-1,-1,-1,-1,-1,-1,-1,-1,-1,-1,-1,-1,-1,-1,-1,-1,-1,-1,-1,-1,-1,-1,-1,-1,-1,-1,-1,-1,-1],"loss_changes":[7.158541E7,1.2102244E7,1.2887284E7,1.415292E6,1.6488841E6,1.898494E6,2.189524E6,1.9073E5,1.37004E5,2.0461775E5,2.1749828E5,2.58103E5,2.41912E5,3.38876E5,3.43436E5,2.262E4,1.593E4,1.7761E4,1.3186E4,1.9029E4,3.5129375E4,3.345432E4,2.1128742E4,3.4270375E4,2.8084E4,3.15435E4,3.01755E4,4.7971E4,3.5914E4,6.9462E4,3.7539E4,3.427E3,1.2895E3,1.716E3,2.336E3,3.0605E3,2.3195E3,3.378E3,2.20175E3,4.248125E3,7.433375E3,6.4839375E3,9.561125E3,9.9991875E3,8.67498E3,6.809039E3,9.069641E3,6.6245625E3,1.37219375E4,1.009725E4,6.802375E3,4.90775E3,6.40525E3,5.4075E3,9.62975E3,7.288E3,1.0531E4,8.0885E3,4.226E3,1.3867E4,3.029E3,9.7E1,1.4255E3,0E0,0E0,0E0,0E0,0E0,0E0,0E0,0E0,0E0,0E0,0E0,0E0,0E0,0E0,0E0,0E0,0E0,0E0,0E0,0E0,0E0,0E0,0E0,0E0,0E0,0E0,0E0,0E0,0E0,0E0,0E0,0E0,0E0,0E0,0E0,0E0,0E0,0E0,0E0,0E0,0E0,0E0,0E0,0E0,0E0,0E0,0E0,0E0,0E0,0E0,0E0,0E0,0E0,0E0,0E0,0E0,0E0,0E0,0E0,0E0,0E0,0E0,0E0,0E0],"parents":[2147483647,0,0,1,1,2,2,3,3,4,4,5,5,6,6,7,7,8,8,9,9,10,10,11,11,12,12,13,13,14,14,15,15,16,16,17,17,18,18,19,19,20,20,21,21,22,22,23,23,24,24,25,25,26,26,27,27,28,28,29,29,30,30,31,31,32,32,33,33,34,34,35,35,36,36,37,37,38,38,39,39,40,40,41,41,42,42,43,43,44,44,45,45,46,46,47,47,48,48,49,49,50,50,51,51,52,52,53,53,54,54,55,55,56,56,57,57,58,58,59,59,60,60,61,61,62,62],"right_children":[2,4,6,8,10,12,14,16,18,20,22,24,26,28,30,32,34,36,38,40,42,44,46,48,50,52,54,56,58,60,62,64,66,68,70,72,74,76,78,80,82,84,86,88,90,92,94,96,98,100,102,104,106,108,110,112,114,116,118,120,122,124,126,-1,-1,-1,-1,-1,-1,-1,-1,-1,-1,-1,-1,-1,-1,-1,-1,-1,-1,-1,-1,-1,-1,-1,-1,-1,-1,-1,-1,-1,-1,-1,-1,-1,-1,-1,-1,-1,-1,-1,-1,-1,-1,-1,-1,-1,-1,-1,-1,-1,-1,-1,-1,-1,-1,-1,-1,-1,-1,-1,-1,-1,-1,-1,-1],"split_conditions":[2.16E1,9.8947E0,3.616E1,4.7667E0,1.55862E1,2.84286E1,4.7497E1,2.1038E0,7.5714E0,1.24E1,1.86667E1,2.50526E1,3.22169E1,4.15278E1,5.66667E1,9.302E-1,3.3088E0,6.3826E0,8.956E0,1.132E1,1.3825E1,1.70253E1,2.00123E1,2.30107E1,2.68E1,3.05E1,3.452E1,3.90455E1,4.48511E1,5.25E1,6.03333E1,3.333E-1,1.566E0,2.7303E0,4.0515E0,5.4286E0,3.9813E4,3.4608E5,3.9813E4,2.16827E5,3.58767E5,2.944E5,3.49067E5,2.944E5,2.77373E5,2.56453E5,3.35018E5,7.04E-1,3.55493E5,3.0084E5,2.62531E5,2.77373E5,2.51797E5,3.35E1,6.92E-1,3.74E1,6.64E-1,4.33736E1,2.31427E5,4.96667E1,5.43458E1,7.35E-1,4.2E1,-7.8037244E-1,-7.544451E-1,-7.256014E-1,-7.0264274E-1,-6.7864984E-1,-6.5036505E-1,-6.248316E-1,-5.976781E-1,-5.647532E-1,-5.3261244E-1,-6.851991E-1,-4.858863E-1,-4.2233324E-1,-4.6499825E-1,-6.388183E-1,-3.790065E-1,-3.1081012E-1,-3.467375E-1,-2.6709622E-1,-3.3782506E-1,-2.1091357E-1,-2.5812817E-1,-1.4802775E-1,-2.1354774E-1,-7.4346565E-2,-1.3521183E-1,-7.1412832E-3,-5.8628768E-2,6.1278135E-2,1.1237293E-2,1.1157651E-1,3.518025E-2,1.7350586E-1,7.111308E-2,2.4981959E-1,1.5251839E-1,3.3470494E-1,2.611877E-1,4.080727E-1,3.5041824E-1,4.811108E-1,4.2871156E-1,5.668145E-1,5.065795E-1,6.118106E-1,6.620513E-1,7.329322E-1,5.567418E-1,7.8281504E-1,8.415126E-1,9.3906176E-1,7.44054E-1,1.0231844E0,1.0977973E0,1.1972497E0,1.1156405E0,1.2790891E0,1.3850535E0,1.494127E0,1.5728034E0,1.6761801E0,1.7442387E0,1.9856237E0,1.8893603E0],"split_indices":[12,12,12,12,12,12,12,12,12,12,12,12,12,12,12,12,12,12,12,12,12,12,12,12,12,12,12,12,12,12,12,12,12,12,12,12,9,9,9,9,9,9,9,9,9,9,9,6,9,9,9,9,9,12,6,12,6,12,9,12,12,0,13,0,0,0,0,0,0,0,0,0,0,0,0,0,0,0,0,0,0,0,0,0,0,0,0,0,0,0,0,0,0,0,0,0,0,0,0,0,0,0,0,0,0,0,0,0,0,0,0,0,0,0,0,0,0,0,0,0,0,0,0,0,0,0,0],"split_type":[0,0,0,0,0,0,0,0,0,0,0,0,0,0,0,0,0,0,0,0,0,0,0,0,0,0,0,0,0,0,0,0,0,0,0,0,0,0,0,0,0,0,0,0,0,0,0,0,0,0,0,0,0,0,0,0,0,0,0,0,0,0,0,0,0,0,0,0,0,0,0,0,0,0,0,0,0,0,0,0,0,0,0,0,0,0,0,0,0,0,0,0,0,0,0,0,0,0,0,0,0,0,0,0,0,0,0,0,0,0,0,0,0,0,0,0,0,0,0,0,0,0,0,0,0,0,0],"sum_hessian":[8.35121E5,5.30501E5,3.0462E5,2.52217E5,2.78284E5,2.14899E5,8.9721E4,1.43338E5,1.08879E5,1.43535E5,1.34749E5,1.25065E5,8.9834E4,6.3933E4,2.5788E4,8.5754E4,5.7584E4,5.4348E4,5.4531E4,6.3941E4,7.9594E4,7.4273E4,6.0476E4,6.7462E4,5.7603E4,5.1367E4,3.8467E4,3.8478E4,2.5455E4,1.9392E4,6.396E3,5.7016E4,2.8738E4,2.3797E4,3.3787E4,3.2012E4,2.2336E4,3.2019E4,2.2512E4,3.4827E4,2.9114E4,3.5456E4,4.4138E4,3.5495E4,3.8778E4,2.8472E4,3.2004E4,2.8893E4,3.8569E4,3.2011E4,2.5592E4,2.8991E4,2.2376E4,2.2436E4,1.6031E4,2.2402E4,1.6076E4,1.5965E4,9.49E3,1.2981E4,6.411E3,3.183E3,3.213E3,3.4494E4,2.2522E4,1.6028E4,1.271E4,1.2799E4,1.0998E4,1.7713E4,1.6074E4,1.2863E4,1.9149E4,1.52E2,2.2184E4,2.6233E4,5.786E3,8.3E1,2.2429E4,1.3711E4,2.1116E4,2.4722E4,4.392E3,2.519E4,1.0266E4,3.7595E4,6.543E3,2.6431E4,9.064E3,2.7051E4,1.1727E4,1.7254E4,1.1218E4,2.7478E4,4.526E3,2.7214E4,1.679E3,3.4514E4,4.055E3,2.6305E4,5.706E3,1.8421E4,7.171E3,2.3341E4,5.65E3,1.6144E4,6.232E3,1.2673E4,9.763E3,1.5196E4,8.35E2,9.568E3,1.2834E4,1.5327E4,7.49E2,9.582E3,6.383E3,7.089E3,2.401E3,6.569E3,6.412E3,3.197E3,3.214E3,2.215E3,9.68E2,1.8E3,1.413E3],"tree_param":{"num_deleted":"0","num_feature":"14","num_nodes":"127","size_leaf_vector":"1"}},{"base_weights":[-6.989158E-3,-6.7179704E0,1.1501208E1,-1.1604218E1,-2.5480466E0,7.518198E0,2.1161663E1,-1.354269E1,-9.215645E0,-4.9182897E0,-2.2156237E-1,4.99177E0,1.0703617E1,1.8173342E1,2.8585386E1,-1.4416048E1,-1.2386087E1,-1.0351949E1,-8.205782E0,-6.1274123E0,-3.9067461E0,-1.5700957E0,9.541304E-1,3.689135E0,6.3004265E0,9.18848E0,1.2447895E1,1.6202692E1,2.0583052E1,2.6581419E1,3.460999E1,-1.4722288E1,-1.39142275E1,-1.2986579E1,-1.1904757E1,-1.09363165E1,-9.897202E0,-8.809108E0,-7.7221603E0,-6.695332E0,-5.6635222E0,-4.3946667E0,-3.2240357E0,-2.1566494E0,-1.032876E0,1.01939976E-1,1.5604436E0,2.9114356E0,4.1434355E0,5.666486E0,7.0111094E0,8.378003E0,9.818302E0,1.1373787E1,1.3242071E1,1.53407345E1,1.7240063E1,1.9411964E1,2.206513E1,2.5309637E1,2.9131924E1,3.2267223E1,3.6905205E1,-7.425059E-1,-7.236123E-1,-7.0876926E-1,-6.851949E-1,-6.619E-1,-6.3708836E-1,-6.0860264E-1,-5.8186764E-1,-5.625877E-1,-5.3512996E-1,-4.8169112E-1,-5.133543E-1,-4.5065957E-1,-4.1914344E-1,-3.7481248E-1,-4.0790063E-1,-5.781579E-1,-3.3373052E-1,-2.637549E-1,-3.0956197E-1,-2.0955168E-1,-2.5433916E-1,-1.5339507E-1,-2.160965E-1,-9.217491E-2,-1.3458055E-1,-4.3918937E-2,-1.396363E-1,2.2164589E-2,-4.2869385E-2,9.800162E-2,4.7196057E-2,1.5966071E-1,1.1757129E-1,1.9235413E-1,2.4379086E-1,2.9617795E-1,2.1333717E-1,3.6087248E-1,3.0623895E-1,4.3382835E-1,3.8293946E-1,5.0122267E-1,4.341103E-1,5.767718E-1,4.8903823E-1,6.397633E-1,6.9976133E-1,7.8035307E-1,7.1301955E-1,8.728814E-1,7.592059E-1,9.436002E-1,1.0118455E0,1.0728158E0,1.1345239E0,1.2171714E0,1.3138434E0,1.4163789E0,1.4959031E0,1.531731E0,1.6238222E0,1.8616358E0,1.7617546E0],"categories":[],"categories_nodes":[],"categories_segments":[],"categories_sizes":[],"default_left":[0,0,0,0,0,0,0,0,0,0,0,0,0,0,0,0,0,0,0,0,0,0,0,0,0,0,0,0,0,0,0,0,0,0,0,0,0,0,0,0,0,0,0,0,0,0,0,0,0,0,0,0,0,0,0,0,0,0,0,0,0,0,0,0,0,0,0,0,0,0,0,0,0,0,0,0,0,0,0,0,0,0,0,0,0,0,0,0,0,0,0,0,0,0,0,0,0,0,0,0,0,0,0,0,0,0,0,0,0,0,0,0,0,0,0,0,0,0,0,0,0,0,0,0,0,0,0],"id":5,"left_children":[1,3,5,7,9,11,13,15,17,19,21,23,25,27,29,31,33,35,37,39,41,43,45,47,49,51,53,55,57,59,61,63,65,67,69,71,73,75,77,79,81,83,85,87,89,91,93,95,97,99,101,103,105,107,109,111,113,115,117,119,121,123,125,-1,-1,-1,-1,-1,-1,-1,-1,-1,-1,-1,-1,-1,-1,-1,-1,-1,-1,-1,-1,-1,-1,-1,-1,-1,-1,-1,-1,-1,-1,-1,-1,-1,-1,-1,-1,-1,-1,-1,-1,-1,-1,-1,-1,-1,-1,-1,-1,-1,-1,-1,-1,-1,-1,-1,-1,-1,-1,-1,-1,-1,-1,-1,-1],"loss_changes":[6.4501804E7,1.0748788E7,1.1836928E7,1.12458E6,1.5695764E6,1.752959E6,1.991844E6,1.35264E5,1.24791E5,1.72421E5,2.2774502E5,2.0706575E5,2.54513E5,3.03756E5,3.10252E5,1.1535E4,1.6521E4,1.3498E4,1.6745E4,1.688125E4,2.5558875E4,2.1080078E4,3.9651484E4,2.14985E4,2.726175E4,2.6239E4,3.80515E4,3.1238E4,4.9566E4,6.2013E4,3.33835E4,1.301E3,1.3975E3,1.411E3,2.148E3,1.53075E3,2.70725E3,2.154E3,3.089E3,2.83475E3,7.214375E3,6.2885625E3,5.4725E3,5.352953E3,9.492836E3,1.0447599E4,1.1044477E4,3.5357031E3,8.32225E3,1.150175E4,5.18E3,4.776875E3,6.70725E3,4.7915E3,8.483E3,5.317E3,6.883E3,6.7895E3,4.351E3,1.143E4,3.2185E3,9.45E1,4.61E2,0E0,0E0,0E0,0E0,0E0,0E0,0E0,0E0,0E0,0E0,0E0,0E0,0E0,0E0,0E0,0E0,0E0,0E0,0E0,0E0,0E0,0E0,0E0,0E0,0E0,0E0,0E0,0E0,0E0,0E0,0E0,0E0,0E0,0E0,0E0,0E0,0E0,0E0,0E0,0E0,0E0,0E0,0E0,0E0,0E0,0E0,0E0,0E0,0E0,0E0,0E0,0E0,0E0,0E0,0E0,0E0,0E0,0E0,0E0,0E0,0E0,0E0,0E0,0E0],"parents":[2147483647,0,0,1,1,2,2,3,3,4,4,5,5,6,6,7,7,8,8,9,9,10,10,11,11,12,12,13,13,14,14,15,15,16,16,17,17,18,18,19,19,20,20,21,21,22,22,23,23,24,24,25,25,26,26,27,27,28,28,29,29,30,30,31,31,32,32,33,33,34,34,35,35,36,36,37,37,38,38,39,39,40,40,41,41,42,42,43,43,44,44,45,45,46,46,47,47,48,48,49,49,50,50,51,51,52,52,53,53,54,54,55,55,56,56,57,57,58,58,59,59,60,60,61,61,62,62],"right_children":[2,4,6,8,10,12,14,16,18,20,22,24,26,28,30,32,34,36,38,40,42,44,46,48,50,52,54,56,58,60,62,64,66,68,70,72,74,76,78,80,82,84,86,88,90,92,94,96,98,100,102,104,106,108,110,112,114,116,118,120,122,124,126,-1,-1,-1,-1,-1,-1,-1,-1,-1,-1,-1,-1,-1,-1,-1,-1,-1,-1,-1,-1,-1,-1,-1,-1,-1,-1,-1,-1,-1,-1,-1,-1,-1,-1,-1,-1,-1,-1,-1,-1,-1,-1,-1,-1,-1,-1,-1,-1,-1,-1,-1,-1,-1,-1,-1,-1,-1,-1,-1,-1,-1,-1,-1,-1],"split_conditions":[2.14202E1,9.5E0,3.616E1,4.3125E0,1.50395E1,2.8E1,4.7497E1,1.6806E0,6.8679E0,1.20476E1,1.78182E1,2.45116E1,3.17105E1,4.1E1,5.66667E1,6.364E-1,2.9512E0,5.4286E0,8.1333E0,1.06375E1,1.3825E1,1.63968E1,1.92222E1,2.25333E1,2.62533E1,2.96E1,3.35E1,3.8561E1,4.40104E1,5.25E1,6.03333E1,2.632E-1,1.0625E0,2.201E0,3.5769E0,4.7667E0,2.57427E5,-6.45E0,2.76093E5,3.9813E4,2.54573E5,3.20413E5,3.58767E5,2.64667E5,4.08189E5,2.912E5,2.52693E5,6.51E-2,-5.243E0,3.1616E5,2.88267E5,2.56453E5,2.89733E5,3.2268E5,3.51203E1,2.66867E5,2.86813E5,4.2766E1,4.56E1,4.96667E1,5.43458E1,-9.907E0,7.9E-1,-7.425059E-1,-7.236123E-1,-7.0876926E-1,-6.851949E-1,-6.619E-1,-6.3708836E-1,-6.0860264E-1,-5.8186764E-1,-5.625877E-1,-5.3512996E-1,-4.8169112E-1,-5.133543E-1,-4.5065957E-1,-4.1914344E-1,-3.7481248E-1,-4.0790063E-1,-5.781579E-1,-3.3373052E-1,-2.637549E-1,-3.0956197E-1,-2.0955168E-1,-2.5433916E-1,-1.5339507E-1,-2.160965E-1,-9.217491E-2,-1.3458055E-1,-4.3918937E-2,-1.396363E-1,2.2164589E-2,-4.2869385E-2,9.800162E-2,4.7196057E-2,1.5966071E-1,1.1757129E-1,1.9235413E-1,2.4379086E-1,2.9617795E-1,2.1333717E-1,3.6087248E-1,3.0623895E-1,4.3382835E-1,3.8293946E-1,5.0122267E-1,4.341103E-1,5.767718E-1,4.8903823E-1,6.397633E-1,6.9976133E-1,7.8035307E-1,7.1301955E-1,8.728814E-1,7.592059E-1,9.436002E-1,1.0118455E0,1.0728158E0,1.1345239E0,1.2171714E0,1.3138434E0,1.4163789E0,1.4959031E0,1.531731E0,1.6238222E0,1.8616358E0,1.7617546E0],"split_indices":[12,12,12,12,12,12,12,12,12,12,12,12,12,12,12,12,12,12,12,12,12,12,12,12,12,12,12,12,12,12,12,12,12,12,12,12,9,2,9,9,9,9,9,9,9,9,9,3,2,9,9,9,9,9,12,9,9,12,12,12,12,2,1,0,0,0,0,0,0,0,0,0,0,0,0,0,0,0,0,0,0,0,0,0,0,0,0,0,0,0,0,0,0,0,0,0,0,0,0,0,0,0,0,0,0,0,0,0,0,0,0,0,0,0,0,0,0,0,0,0,0,0,0,0,0,0,0],"split_type":[0,0,0,0,0,0,0,0,0,0,0,0,0,0,0,0,0,0,0,0,0,0,0,0,0,0,0,0,0,0,0,0,0,0,0,0,0,0,0,0,0,0,0,0,0,0,0,0,0,0,0,0,0,0,0,0,0,0,0,0,0,0,0,0,0,0,0,0,0,0,0,0,0,0,0,0,0,0,0,0,0,0,0,0,0,0,0,0,0,0,0,0,0,0,0,0,0,0,0,0,0,0,0,0,0,0,0,0,0,0,0,0,0,0,0,0,0,0,0,0,0,0,0,0,0,0,0],"sum_hessian":[8.35175E5,5.27541E5,3.07634E5,2.42906E5,2.84635E5,2.17826E5,8.9808E4,1.34084E5,1.08822E5,1.40991E5,1.43644E5,1.2148E5,9.6346E4,6.4035E4,2.5773E4,7.639E4,5.7694E4,5.1201E4,5.7621E4,6.4221E4,7.677E4,6.6904E4,7.674E4,6.0882E4,6.0598E4,5.1563E4,4.4783E4,3.5231E4,2.8804E4,1.9344E4,6.429E3,4.7422E4,2.8968E4,2.5658E4,3.2036E4,2.2397E4,2.8804E4,2.563E4,3.1991E4,2.8867E4,3.5354E4,4.4769E4,3.2001E4,3.1982E4,3.4922E4,3.1902E4,4.4838E4,2.2453E4,3.8429E4,3.2033E4,2.8565E4,2.2554E4,2.9009E4,1.9043E4,2.574E4,1.9251E4,1.598E4,1.6098E4,1.2706E4,1.2915E4,6.429E3,3.189E3,3.24E3,3.1341E4,1.6081E4,1.2893E4,1.6075E4,1.2632E4,1.3026E4,1.5999E4,1.6037E4,9.512E3,1.2885E4,1.684E4,1.1964E4,1.7318E4,8.312E3,2.1082E4,1.0909E4,1.2E2,2.8747E4,2.0371E4,1.4983E4,3.4597E4,1.0172E4,2.802E4,3.981E3,2.0176E4,1.1806E4,3.2105E4,2.817E3,2.353E4,8.372E3,2.7204E4,1.7634E4,1.4934E4,7.519E3,2.7363E4,1.1066E4,2.706E4,4.973E3,2.3165E4,5.4E3,1.593E4,6.624E3,2.4547E4,4.462E3,1.7283E4,1.76E3,1.6167E4,9.573E3,1.5433E4,3.818E3,1.4444E4,1.536E3,9.744E3,6.354E3,6.456E3,6.25E3,6.474E3,6.441E3,3.196E3,3.233E3,3.79E2,2.81E3,2.691E3,5.49E2],"tree_param":{"num_deleted":"0","num_feature":"14","num_nodes":"127","size_leaf_vector":"1"}},{"base_weights":[3.9105457E-3,-6.324792E0,1.1040772E1,-1.0849821E1,-2.2156575E0,7.3356495E0,2.03595E1,-1.2719031E1,-8.392282E0,-4.1946797E0,2.228486E-1,5.0402956E0,1.0611643E1,1.7469183E1,2.7152906E1,-1.3576941E1,-1.1442866E1,-9.401095E0,-7.3864155E0,-5.380795E0,-3.103888E0,-7.7024823E-1,1.3770086E0,3.7723296E0,6.4453983E0,9.220197E0,1.2218009E1,1.5731349E1,1.9870287E1,2.5268509E1,3.285504E1,-1.3964252E1,-1.3018753E1,-1.2013407E1,-1.1041194E1,-9.869825E0,-8.870761E0,-7.8213286E0,-6.897679E0,-5.8432927E0,-4.66292E0,-3.5952768E0,-2.3828824E0,-1.2459335E0,-1.3071789E-1,8.3652204E-1,1.913299E0,3.2260158E0,4.48509E0,5.9175425E0,7.349868E0,8.648187E0,1.0079846E1,1.14324665E1,1.3135809E1,1.5013395E1,1.6972599E1,1.8749043E1,2.0983751E1,2.3562225E1,2.698099E1,3.062352E1,3.5085365E1,-7.063427E-1,-6.879863E-1,-6.68187E-1,-6.410038E-1,-6.118374E-1,-5.8750457E-1,-5.613732E-1,-5.366694E-1,-5.094774E-1,-4.8064396E-1,-4.464984E-1,-3.8529927E-1,-4.0116245E-1,-3.624482E-1,-3.3176175E-1,-3.5826877E-1,-3.1144604E-1,-2.7780968E-1,-2.4516015E-1,-2.1826501E-1,-1.9284418E-1,-1.5226687E-1,-1.074053E-1,-1.4647707E-1,-5.3857893E-2,-1.3787074E-1,-1.8131964E-2,4.1344345E-2,4.8166104E-2,-4.6536725E-2,1.1561289E-1,7.260105E-2,1.682111E-1,8.338663E-2,2.0489696E-1,2.5607592E-1,3.050755E-1,2.3977323E-1,3.8125467E-1,3.4678808E-1,5.736657E-1,4.28668E-1,5.108467E-1,4.206049E-1,5.52241E-1,5.969035E-1,6.6329217E-1,4.7088215E-1,7.2680444E-1,7.8253824E-1,8.584259E-1,6.623159E-1,9.10452E-1,9.644151E-1,1.0192323E0,1.0796546E0,1.1843036E0,9.226918E-1,1.3122005E0,1.4226831E0,1.5315713E0,1.305399E-1,1.7963905E0,1.6972398E0],"categories":[],"categories_nodes":[],"categories_segments":[],"categories_sizes":[],"default_left":[0,0,0,0,0,0,0,0,0,0,0,0,0,0,0,0,0,0,0,0,0,0,0,0,0,0,0,0,0,0,0,0,0,0,0,0,0,0,0,0,0,0,0,0,0,0,0,0,0,0,0,0,0,0,0,0,0,0,0,0,0,0,0,0,0,0,0,0,0,0,0,0,0,0,0,0,0,0,0,0,0,0,0,0,0,0,0,0,0,0,0,0,0,0,0,0,0,0,0,0,0,0,0,0,0,0,0,0,0,0,0,0,0,0,0,0,0,0,0,0,0,0,0,0,0,0,0],"id":6,"left_children":[1,3,5,7,9,11,13,15,17,19,21,23,25,27,29,31,33,35,37,39,41,43,45,47,49,51,53,55,57,59,61,63,65,67,69,71,73,75,77,79,81,83,85,87,89,91,93,95,97,99,101,103,105,107,109,111,113,115,117,119,121,123,125,-1,-1,-1,-1,-1,-1,-1,-1,-1,-1,-1,-1,-1,-1,-1,-1,-1,-1,-1,-1,-1,-1,-1,-1,-1,-1,-1,-1,-1,-1,-1,-1,-1,-1,-1,-1,-1,-1,-1,-1,-1,-1,-1,-1,-1,-1,-1,-1,-1,-1,-1,-1,-1,-1,-1,-1,-1,-1,-1,-1,-1,-1,-1,-1],"loss_changes":[5.8321204E7,9.867192E6,1.0506184E7,1.160034E6,1.342149E6,1.637158E6,1.69928E6,1.56894E5,1.10647E5,1.9861075E5,1.4281092E5,2.280715E5,2.00384E5,2.53106E5,2.7678E5,1.8362E4,1.3084E4,1.3453E4,1.156E4,2.439125E4,2.8326812E4,2.037343E4,1.6701453E4,2.6191562E4,2.895E4,2.355025E4,2.9865E4,3.1146E4,3.1438E4,5.6117E4,3.0848E4,1.489E3,2.238E3,1.2565E3,1.82075E3,2.2765E3,1.6945E3,3.28225E3,1.7605E3,4.917E3,2.0396875E3,6.8305625E3,4.1543125E3,9.7941875E3,6.344717E3,6.432672E3,5.3195547E3,8.200219E3,7.1734375E3,7.88775E3,2.497375E3,6.005E3,4.303625E3,4.26625E3,9.15475E3,6.5665E3,9.194E3,3.3505E3,4.2265E3,5.7235E3,9.767E3,6.3175E2,1.85625E3,0E0,0E0,0E0,0E0,0E0,0E0,0E0,0E0,0E0,0E0,0E0,0E0,0E0,0E0,0E0,0E0,0E0,0E0,0E0,0E0,0E0,0E0,0E0,0E0,0E0,0E0,0E0,0E0,0E0,0E0,0E0,0E0,0E0,0E0,0E0,0E0,0E0,0E0,0E0,0E0,0E0,0E0,0E0,0E0,0E0,0E0,0E0,0E0,0E0,0E0,0E0,0E0,0E0,0E0,0E0,0E0,0E0,0E0,0E0,0E0,0E0,0E0,0E0,0E0],"parents":[2147483647,0,0,1,1,2,2,3,3,4,4,5,5,6,6,7,7,8,8,9,9,10,10,11,11,12,12,13,13,14,14,15,15,16,16,17,17,18,18,19,19,20,20,21,21,22,22,23,23,24,24,25,25,26,26,27,27,28,28,29,29,30,30,31,31,32,32,33,33,34,34,35,35,36,36,37,37,38,38,39,39,40,40,41,41,42,42,43,43,44,44,45,45,46,46,47,47,48,48,49,49,50,50,51,51,52,52,53,53,54,54,55,55,56,56,57,57,58,58,59,59,60,60,61,61,62,62],"right_children":[2,4,6,8,10,12,14,16,18,20,22,24,26,28,30,32,34,36,38,40,42,44,46,48,50,52,54,56,58,60,62,64,66,68,70,72,74,76,78,80,82,84,86,88,90,92,94,96,98,100,102,104,106,108,110,112,114,116,118,120,122,124,126,-1,-1,-1,-1,-1,-1,-1,-1,-1,-1,-1,-1,-1,-1,-1,-1,-1,-1,-1,-1,-1,-1,-1,-1,-1,-1,-1,-1,-1,-1,-1,-1,-1,-1,-1,-1,-1,-1,-1,-1,-1,-1,-1,-1,-1,-1,-1,-1,-1,-1,-1,-1,-1,-1,-1,-1,-1,-1,-1,-1,-1,-1,-1,-1],"split_conditions":[2.16E1,9.8947E0,3.65882E1,4.7667E0,1.59485E1,2.86667E1,4.7497E1,2.1038E0,7.5714E0,1.28571E1,1.87955E1,2.50526E1,3.22169E1,4.15278E1,5.66667E1,7.291E-1,3.3088E0,6.2162E0,8.8E0,1.16964E1,1.468E1,1.76E1,2.01752E1,2.35E1,2.71739E1,3.06813E1,3.452E1,3.95407E1,4.40104E1,5.08994E1,6.03333E1,1.935E-1,1.22E0,2.7303E0,4.1722E0,5.4286E0,-3.296E0,-5.79E0,4.93E-2,1.06375E1,-7.489E0,-6.149E0,7.15E-2,5.7E-1,-4.812E0,6.3E-1,5.1E-2,6.1E-1,-5.887E0,3.81E-1,1.21E-2,-2.7644E1,4.75E-1,3.35E1,8.22E-1,3.80968E1,6.64E-1,4.2766E1,4.56E1,7.64E-1,5.43458E1,9.95E-1,4.3E1,-7.063427E-1,-6.879863E-1,-6.68187E-1,-6.410038E-1,-6.118374E-1,-5.8750457E-1,-5.613732E-1,-5.366694E-1,-5.094774E-1,-4.8064396E-1,-4.464984E-1,-3.8529927E-1,-4.0116245E-1,-3.624482E-1,-3.3176175E-1,-3.5826877E-1,-3.1144604E-1,-2.7780968E-1,-2.4516015E-1,-2.1826501E-1,-1.9284418E-1,-1.5226687E-1,-1.074053E-1,-1.4647707E-1,-5.3857893E-2,-1.3787074E-1,-1.8131964E-2,4.1344345E-2,4.8166104E-2,-4.6536725E-2,1.1561289E-1,7.260105E-2,1.682111E-1,8.338663E-2,2.0489696E-1,2.5607592E-1,3.050755E-1,2.3977323E-1,3.8125467E-1,3.4678808E-1,5.736657E-1,4.28668E-1,5.108467E-1,4.206049E-1,5.52241E-1,5.969035E-1,6.6329217E-1,4.7088215E-1,7.2680444E-1,7.8253824E-1,8.584259E-1,6.623159E-1,9.10452E-1,9.644151E-1,1.0192323E0,1.0796546E0,1.1843036E0,9.226918E-1,1.3122005E0,1.4226831E0,1.5315713E0,1.305399E-1,1.7963905E0,1.6972398E0],"split_indices":[12,12,12,12,12,12,12,12,12,12,12,12,12,12,12,12,12,12,12,12,12,12,12,12,12,12,12,12,12,12,12,12,12,12,12,12,2,2,3,12,2,2,3,6,2,6,3,6,2,6,5,2,6,12,6,12,6,12,12,6,12,1,13,0,0,0,0,0,0,0,0,0,0,0,0,0,0,0,0,0,0,0,0,0,0,0,0,0,0,0,0,0,0,0,0,0,0,0,0,0,0,0,0,0,0,0,0,0,0,0,0,0,0,0,0,0,0,0,0,0,0,0,0,0,0,0,0],"split_type":[0,0,0,0,0,0,0,0,0,0,0,0,0,0,0,0,0,0,0,0,0,0,0,0,0,0,0,0,0,0,0,0,0,0,0,0,0,0,0,0,0,0,0,0,0,0,0,0,0,0,0,0,0,0,0,0,0,0,0,0,0,0,0,0,0,0,0,0,0,0,0,0,0,0,0,0,0,0,0,0,0,0,0,0,0,0,0,0,0,0,0,0,0,0,0,0,0,0,0,0,0,0,0,0,0,0,0,0,0,0,0,0,0,0,0,0,0,0,0,0,0,0,0,0,0,0,0],"sum_hessian":[8.34959E5,5.30667E5,3.04292E5,2.52552E5,2.78115E5,2.17726E5,8.6566E4,1.43444E5,1.09108E5,1.53521E5,1.24594E5,1.28026E5,8.97E4,6.0731E4,2.5835E4,8.5773E4,5.7671E4,5.447E4,5.4638E4,7.3545E4,7.9976E4,6.697E4,5.7624E4,6.7299E4,6.0727E4,4.8069E4,4.1631E4,3.5236E4,2.5495E4,1.9422E4,6.413E3,5.0623E4,3.515E4,2.3815E4,3.3856E4,2.8905E4,2.5565E4,2.8903E4,2.5735E4,4.4724E4,2.8821E4,4.7559E4,3.2417E4,3.8404E4,2.8566E4,2.8701E4,2.8923E4,3.8101E4,2.9198E4,3.8352E4,2.2375E4,2.887E4,1.9199E4,2.2439E4,1.9192E4,2.2332E4,1.2904E4,1.2712E4,1.2783E4,9.736E3,9.686E3,3.213E3,3.2E3,2.8164E4,2.2459E4,1.2821E4,2.2329E4,1.2861E4,1.0954E4,2.107E4,1.2786E4,1.2862E4,1.6043E4,2.4322E4,1.243E3,2.1356E4,7.547E3,1.3008E4,1.2727E4,1.9078E4,2.5646E4,1.5938E4,1.2883E4,3.2224E4,1.5335E4,2.2681E4,9.736E3,3.4548E4,3.856E3,2.2997E4,5.569E3,2.678E4,1.921E3,1.5507E4,1.3416E4,3.4996E4,3.105E3,1.8159E4,1.1039E4,3.2946E4,5.406E3,1.3431E4,8.944E3,7.41E2,2.8129E4,1.7736E4,1.463E3,1.2714E4,9.725E3,1.8541E4,6.51E2,1.2783E4,9.549E3,1.2256E4,6.48E2,6.369E3,6.343E3,6.463E3,6.32E3,9.502E3,2.34E2,6.468E3,3.218E3,3.212E3,1E0,1.823E3,1.377E3],"tree_param":{"num_deleted":"0","num_feature":"14","num_nodes":"127","size_leaf_vector":"1"}},{"base_weights":[-2.5479912E-3,-6.163817E0,1.022097E1,-1.0526186E1,-2.4492342E0,6.487489E0,1.8684975E1,-1.2174777E1,-8.317084E0,-4.5493917E0,-3.597334E-1,4.2683096E0,9.295825E0,1.5863365E1,2.5262964E1,-1.2939022E1,-1.1026167E1,-9.309031E0,-7.442525E0,-5.610208E0,-3.5753355E0,-1.4159793E0,7.9989946E-1,3.0921462E0,5.4457374E0,8.074538E0,1.0890539E1,1.4175961E1,1.8116241E1,2.2959015E1,2.9835823E1,-1.3260527E1,-1.2425783E1,-1.1507296E1,-1.0593323E1,-9.826668E0,-8.964413E0,-7.859191E0,-6.9750733E0,-6.2249737E0,-5.2341156E0,-4.1032205E0,-3.0968094E0,-1.9988905E0,-8.7187845E-1,1.3718691E-1,1.2936928E0,2.4539042E0,3.567361E0,4.8767805E0,6.0806556E0,7.3556633E0,8.713739E0,1.0231647E1,1.1647038E1,1.314104E1,1.4911487E1,1.7141987E1,1.9329268E1,2.1550257E1,2.4367289E1,2.8073551E1,3.335165E1,-6.700855E-1,-6.514919E-1,-6.35261E-1,-6.1184096E-1,-5.880371E-1,-5.6247085E-1,-5.405687E-1,-5.2092594E-1,-4.809807E-1,-5.077958E-1,-4.359632E-1,-4.6850204E-1,-5.845825E-1,-3.9196852E-1,-6.250681E-1,-3.4786516E-1,-2.9303744E-1,-3.2281864E-1,-2.4566257E-1,-2.873102E-1,-1.9817254E-1,-2.4588099E-1,-1.447532E-1,-1.9822271E-1,-9.150304E-2,-1.5263891E-1,-3.173494E-2,-9.7439975E-2,1.9528754E-2,-5.032703E-2,8.4180795E-2,3.518383E-2,1.3004367E-1,3.5790164E-2,1.9262004E-1,1.4429434E-1,2.5862357E-1,1.7887963E-1,3.1228355E-1,2.52497E-1,3.720027E-1,1.5698218E-1,4.4762355E-1,3.9604765E-1,5.1440823E-1,3.1707618E-1,5.8803433E-1,4.2228076E-1,6.6445845E-1,5.355779E-1,7.632176E-1,6.969819E-1,8.6424017E-1,6.9260377E-1,9.4192773E-1,9.9058646E-1,1.0825565E0,8.8451093E-1,1.1886718E0,1.277526E0,1.3496507E0,1.4575366E0,1.6713619E0,1.2098669E0],"categories":[],"categories_nodes":[],"categories_segments":[],"categories_sizes":[],"default_left":[0,0,0,0,0,0,0,0,0,0,0,0,0,0,0,0,0,0,0,0,0,0,0,0,0,0,0,0,0,0,0,0,0,0,0,0,0,0,0,0,0,0,0,0,0,0,0,0,0,0,0,0,0,0,0,0,0,0,0,0,0,0,0,0,0,0,0,0,0,0,0,0,0,0,0,0,0,0,0,0,0,0,0,0,0,0,0,0,0,0,0,0,0,0,0,0,0,0,0,0,0,0,0,0,0,0,0,0,0,0,0,0,0,0,0,0,0,0,0,0,0,0,0,0,0,0,0],"id":7,"left_children":[1,3,5,7,9,11,13,15,17,19,21,23,25,27,29,31,33,35,37,39,41,43,45,47,49,51,53,55,57,59,61,63,65,67,69,71,73,75,77,79,81,83,85,87,89,91,93,95,97,99,101,103,105,107,109,111,113,115,117,119,121,123,125,-1,-1,-1,-1,-1,-1,-1,-1,-1,-1,-1,-1,-1,-1,-1,-1,-1,-1,-1,-1,-1,-1,-1,-1,-1,-1,-1,-1,-1,-1,-1,-1,-1,-1,-1,-1,-1,-1,-1,-1,-1,-1,-1,-1,-1,-1,-1,-1,-1,-1,-1,-1,-1,-1,-1,-1,-1,-1,-1,-1,-1,-1,-1,-1],"loss_changes":[5.2603388E7,8.443718E6,9.923324E6,8.72656E5,1.2350184E6,1.358032E6,1.783636E6,1.2032E5,8.87765E4,1.450135E5,1.7280033E5,1.68555E5,1.87246E5,2.5547E5,3.03288E5,1.3431E4,1.1297E4,8.47175E3,1.054725E4,1.550125E4,1.8471812E4,2.3414375E4,2.200627E4,1.846175E4,2.194425E4,2.496775E4,2.06725E4,2.9085E4,3.3709E4,3.7546E4,5.8934E4,1.475E3,1.521E3,1.564E3,9.88E2,1.209125E3,2.78375E3,2.093875E3,2.433125E3,2.1110625E3,6.822125E3,3.940625E3,6.70775E3,6.336297E3,9.752887E3,8.321911E3,8.864211E3,6.63825E3,6.7690625E3,1.23075625E4,4.857375E3,9.10125E3,5.3855E3,4.8385E3,6.96325E3,5.61175E3,7.4955E3,7.2705E3,2.662E3,3.356E3,6.1305E3,6.712E3,1.42E3,0E0,0E0,0E0,0E0,0E0,0E0,0E0,0E0,0E0,0E0,0E0,0E0,0E0,0E0,0E0,0E0,0E0,0E0,0E0,0E0,0E0,0E0,0E0,0E0,0E0,0E0,0E0,0E0,0E0,0E0,0E0,0E0,0E0,0E0,0E0,0E0,0E0,0E0,0E0,0E0,0E0,0E0,0E0,0E0,0E0,0E0,0E0,0E0,0E0,0E0,0E0,0E0,0E0,0E0,0E0,0E0,0E0,0E0,0E0,0E0,0E0,0E0,0E0,0E0],"parents":[2147483647,0,0,1,1,2,2,3,3,4,4,5,5,6,6,7,7,8,8,9,9,10,10,11,11,12,12,13,13,14,14,15,15,16,16,17,17,18,18,19,19,20,20,21,21,22,22,23,23,24,24,25,25,26,26,27,27,28,28,29,29,30,30,31,31,32,32,33,33,34,34,35,35,36,36,37,37,38,38,39,39,40,40,41,41,42,42,43,43,44,44,45,45,46,46,47,47,48,48,49,49,50,50,51,51,52,52,53,53,54,54,55,55,56,56,57,57,58,58,59,59,60,60,61,61,62,62],"right_children":[2,4,6,8,10,12,14,16,18,20,22,24,26,28,30,32,34,36,38,40,42,44,46,48,50,52,54,56,58,60,62,64,66,68,70,72,74,76,78,80,82,84,86,88,90,92,94,96,98,100,102,104,106,108,110,112,114,116,118,120,122,124,126,-1,-1,-1,-1,-1,-1,-1,-1,-1,-1,-1,-1,-1,-1,-1,-1,-1,-1,-1,-1,-1,-1,-1,-1,-1,-1,-1,-1,-1,-1,-1,-1,-1,-1,-1,-1,-1,-1,-1,-1,-1,-1,-1,-1,-1,-1,-1,-1,-1,-1,-1,-1,-1,-1,-1,-1,-1,-1,-1,-1,-1,-1,-1,-1],"split_conditions":[2.10805E1,9.3623E0,3.54783E1,4.4762E0,1.49322E1,2.76E1,4.66027E1,2E0,6.8679E0,1.20476E1,1.79583E1,2.41515E1,3.14286E1,4.05E1,5.43458E1,7.291E-1,3.2247E0,5.4286E0,8.2791E0,1.03708E1,1.33912E1,1.63968E1,1.92222E1,2.23974E1,2.58571E1,2.93333E1,3.35E1,3.74E1,4.33736E1,4.96667E1,6.03333E1,2.632E-1,1.22E0,2.5964E0,3.7589E0,2.69107E5,2.69107E5,3.9813E4,3.9813E4,2.14827E5,2.62531E5,3.76585E5,3.20413E5,4.23E-1,3.2268E5,3.3E5,2.52693E5,6.48E-1,2.69107E5,2.99253E5,3.1616E5,8.79E-1,2.64667E5,9.05E-1,3.72891E5,5.49E-1,2.456E5,6.64E-1,4.48511E1,7.64E-1,5.25E1,5.66667E1,7.92E-1,-6.700855E-1,-6.514919E-1,-6.35261E-1,-6.1184096E-1,-5.880371E-1,-5.6247085E-1,-5.405687E-1,-5.2092594E-1,-4.809807E-1,-5.077958E-1,-4.359632E-1,-4.6850204E-1,-5.845825E-1,-3.9196852E-1,-6.250681E-1,-3.4786516E-1,-2.9303744E-1,-3.2281864E-1,-2.4566257E-1,-2.873102E-1,-1.9817254E-1,-2.4588099E-1,-1.447532E-1,-1.9822271E-1,-9.150304E-2,-1.5263891E-1,-3.173494E-2,-9.7439975E-2,1.9528754E-2,-5.032703E-2,8.4180795E-2,3.518383E-2,1.3004367E-1,3.5790164E-2,1.9262004E-1,1.4429434E-1,2.5862357E-1,1.7887963E-1,3.1228355E-1,2.52497E-1,3.720027E-1,1.5698218E-1,4.4762355E-1,3.9604765E-1,5.1440823E-1,3.1707618E-1,5.8803433E-1,4.2228076E-1,6.6445845E-1,5.355779E-1,7.632176E-1,6.969819E-1,8.6424017E-1,6.9260377E-1,9.4192773E-1,9.9058646E-1,1.0825565E0,8.8451093E-1,1.1886718E0,1.277526E0,1.3496507E0,1.4575366E0,1.6713619E0,1.2098669E0],"split_indices":[12,12,12,12,12,12,12,12,12,12,12,12,12,12,12,12,12,12,12,12,12,12,12,12,12,12,12,12,12,12,12,12,12,12,12,9,9,9,9,9,9,9,9,6,9,9,9,6,9,9,9,6,9,6,9,6,9,6,12,6,12,12,6,0,0,0,0,0,0,0,0,0,0,0,0,0,0,0,0,0,0,0,0,0,0,0,0,0,0,0,0,0,0,0,0,0,0,0,0,0,0,0,0,0,0,0,0,0,0,0,0,0,0,0,0,0,0,0,0,0,0,0,0,0,0,0,0],"split_type":[0,0,0,0,0,0,0,0,0,0,0,0,0,0,0,0,0,0,0,0,0,0,0,0,0,0,0,0,0,0,0,0,0,0,0,0,0,0,0,0,0,0,0,0,0,0,0,0,0,0,0,0,0,0,0,0,0,0,0,0,0,0,0,0,0,0,0,0,0,0,0,0,0,0,0,0,0,0,0,0,0,0,0,0,0,0,0,0,0,0,0,0,0,0,0,0,0,0,0,0,0,0,0,0,0,0,0,0,0,0,0,0,0,0,0,0,0,0,0,0,0,0,0,0,0,0,0],"sum_hessian":[8.35107E5,5.21077E5,3.1403E5,2.39642E5,2.81435E5,2.17911E5,9.6119E4,1.37228E5,1.02414E5,1.40359E5,1.41076E5,1.21725E5,9.6186E4,6.7268E4,2.8851E4,8.2395E4,5.4833E4,4.7982E4,5.4432E4,6.7185E4,7.3174E4,7.3829E4,6.7247E4,6.0897E4,6.0828E4,5.4474E4,4.1712E4,3.8465E4,2.8803E4,1.9189E4,9.662E3,5.0645E4,3.175E4,2.5956E4,2.8877E4,1.9166E4,2.8816E4,2.8771E4,2.5661E4,2.5495E4,4.169E4,3.4789E4,3.8385E4,3.5642E4,3.8187E4,2.8713E4,3.8534E4,2.5993E4,3.4904E4,3.2085E4,2.8743E4,2.5645E4,2.8829E4,2.2302E4,1.941E4,1.5988E4,2.2477E4,1.5982E4,1.2821E4,9.601E3,9.588E3,6.442E3,3.22E3,3.1382E4,1.9263E4,1.2782E4,1.8968E4,1.3068E4,1.2888E4,1.2822E4,1.6055E4,1.1785E4,7.381E3,1.7975E4,1.0841E4,1.45E2,2.8626E4,8E1,2.5581E4,9.915E3,1.558E4,2.5637E4,1.6053E4,2.9698E4,5.091E3,3.1147E4,7.238E3,3.0723E4,4.919E3,3.1296E4,6.891E3,2.3506E4,5.207E3,2.32E4,1.5334E4,2.3966E4,2.027E3,2.4607E4,1.0297E4,2.6134E4,5.951E3,2.4772E4,3.971E3,2.5141E4,5.04E2,2.2149E4,6.68E3,2.1981E4,3.21E2,1.8742E4,6.68E2,1.5065E4,9.23E2,1.6479E4,5.998E3,1.5313E4,6.69E2,6.376E3,6.445E3,9.352E3,2.49E2,6.398E3,3.19E3,3.229E3,3.213E3,3.191E3,2.9E1],"tree_param":{"num_deleted":"0","num_feature":"14","num_nodes":"127","size_leaf_vector":"1"}},{"base_weights":[5.1246113E-3,-5.7097297E0,9.961516E0,-9.660115E0,-1.8618581E0,6.3517394E0,1.777694E1,-1.1479609E1,-7.4555907E0,-3.607068E0,2.618761E-1,4.230055E0,8.830745E0,1.5104459E1,2.4010506E1,-1.2255546E1,-1.0321207E1,-8.390336E0,-6.4669204E0,-4.643763E0,-2.6586213E0,-6.309645E-1,1.2499726E0,3.2345061E0,5.288776E0,7.58128E0,1.0256165E1,1.3501081E1,1.724229E1,2.187428E1,2.8291573E1,-1.2549721E1,-1.1669584E1,-1.08366E1,-9.958433E0,-8.903916E0,-7.8208137E0,-6.8766785E0,-6.057621E0,-5.1336713E0,-4.150837E0,-3.1462255E0,-2.093961E0,-3.4159723E-1,-1.4479718E0,7.725837E-1,1.7233034E0,2.5253239E0,3.5903757E0,5.511223E0,4.00288E0,6.938376E0,8.081406E0,9.517794E0,1.0985444E1,1.2684834E1,1.4311598E1,1.6300375E1,1.8419111E1,2.0924383E1,2.3748531E1,2.6597202E1,3.1699629E1,-6.357516E-1,-6.1490935E-1,-5.904267E-1,-5.6943053E-1,-5.5615723E-1,-5.321127E-1,-5.077082E-1,-4.8709455E-1,-4.3520758E-1,-4.6135828E-1,-5.778102E-1,-3.90012E-1,-3.6606687E-1,-3.338609E-1,-2.794109E-1,-3.1680372E-1,-2.441274E-1,-2.7646908E-1,-1.982654E-1,-2.6249394E-1,-1.4627068E-1,-1.9775368E-1,-9.738849E-2,-1.456301E-1,-3.6712766E-2,1.0768286E-2,-1.0450031E-1,-3.733683E-2,4.540685E-2,-3.4071784E-2,9.642855E-2,2.4752561E-2,1.3183849E-1,1.0911742E-2,1.9437304E-1,1.4264883E-1,2.55346E-1,3.0379567E-1,2.0971985E-1,-2.3318498E-1,3.5281917E-1,2.246098E-1,6.8001926E-1,4.0232977E-1,4.8298612E-1,3.5166988E-1,5.6029636E-1,4.8561716E-1,6.3832194E-1,4.3648478E-1,7.310483E-1,6.6541976E-1,8.212668E-1,6.729157E-1,8.9716166E-1,9.441115E-1,1.0060562E0,1.0863316E0,1.1545548E0,1.2200226E0,1.2774278E0,1.3814573E0,1.588848E0,1.0739039E0],"categories":[],"categories_nodes":[],"categories_segments":[],"categories_sizes":[],"default_left":[0,0,0,0,0,0,0,0,0,0,0,0,0,0,0,0,0,0,0,0,0,0,0,0,0,0,0,0,0,0,0,0,0,0,0,0,0,0,0,0,0,0,0,0,0,0,0,0,0,0,0,0,0,0,0,0,0,0,0,0,0,0,0,0,0,0,0,0,0,0,0,0,0,0,0,0,0,0,0,0,0,0,0,0,0,0,0,0,0,0,0,0,0,0,0,0,0,0,0,0,0,0,0,0,0,0,0,0,0,0,0,0,0,0,0,0,0,0,0,0,0,0,0,0,0,0,0],"id":8,"left_children":[1,3,5,7,9,11,13,15,17,19,21,23,25,27,29,31,33,35,37,39,41,43,45,47,49,51,53,55,57,59,61,63,65,67,69,71,73,75,77,79,81,83,85,87,89,91,93,95,97,99,101,103,105,107,109,111,113,115,117,119,121,123,125,-1,-1,-1,-1,-1,-1,-1,-1,-1,-1,-1,-1,-1,-1,-1,-1,-1,-1,-1,-1,-1,-1,-1,-1,-1,-1,-1,-1,-1,-1,-1,-1,-1,-1,-1,-1,-1,-1,-1,-1,-1,-1,-1,-1,-1,-1,-1,-1,-1,-1,-1,-1,-1,-1,-1,-1,-1,-1,-1,-1,-1,-1,-1,-1],"loss_changes":[4.751538E7,8.064636E6,8.591242E6,1.04997E6,9.96134E5,1.09563E6,1.60249E6,1.28782E5,1.093395E5,1.4504538E5,1.06955836E5,1.1829425E5,1.710185E5,2.30613E5,2.63405E5,1.4657E4,1.065E4,1.77265E4,9.607E3,1.699975E4,2.1206562E4,1.5056318E4,1.3002383E4,1.45916875E4,1.5537875E4,1.640525E4,2.4058E4,2.52815E4,3.1689E4,3.38E4,5.4633E4,2.22E3,9.8675E2,1.2045E3,1.33275E3,1.985E3,2.1275E3,2.50025E3,3.727625E3,3.485375E3,7.1441875E3,7.37225E3,4.2674375E3,1.0285868E4,7.497703E3,5.648043E3,7.2843125E3,4.970508E3,8.427531E3,1.0556E4,1.3341094E4,6.436875E3,5.4215E3,7.796625E3,6.22575E3,6.081E3,5.79675E3,5.4745E3,2.487E3,7.807E3,2.2105E3,6.2445E3,1.835E3,0E0,0E0,0E0,0E0,0E0,0E0,0E0,0E0,0E0,0E0,0E0,0E0,0E0,0E0,0E0,0E0,0E0,0E0,0E0,0E0,0E0,0E0,0E0,0E0,0E0,0E0,0E0,0E0,0E0,0E0,0E0,0E0,0E0,0E0,0E0,0E0,0E0,0E0,0E0,0E0,0E0,0E0,0E0,0E0,0E0,0E0,0E0,0E0,0E0,0E0,0E0,0E0,0E0,0E0,0E0,0E0,0E0,0E0,0E0,0E0,0E0,0E0,0E0,0E0],"parents":[2147483647,0,0,1,1,2,2,3,3,4,4,5,5,6,6,7,7,8,8,9,9,10,10,11,11,12,12,13,13,14,14,15,15,16,16,17,17,18,18,19,19,20,20,21,21,22,22,23,23,24,24,25,25,26,26,27,27,28,28,29,29,30,30,31,31,32,32,33,33,34,34,35,35,36,36,37,37,38,38,39,39,40,40,41,41,42,42,43,43,44,44,45,45,46,46,47,47,48,48,49,49,50,50,51,51,52,52,53,53,54,54,55,55,56,56,57,57,58,58,59,59,60,60,61,61,62,62],"right_children":[2,4,6,8,10,12,14,16,18,20,22,24,26,28,30,32,34,36,38,40,42,44,46,48,50,52,54,56,58,60,62,64,66,68,70,72,74,76,78,80,82,84,86,88,90,92,94,96,98,100,102,104,106,108,110,112,114,116,118,120,122,124,126,-1,-1,-1,-1,-1,-1,-1,-1,-1,-1,-1,-1,-1,-1,-1,-1,-1,-1,-1,-1,-1,-1,-1,-1,-1,-1,-1,-1,-1,-1,-1,-1,-1,-1,-1,-1,-1,-1,-1,-1,-1,-1,-1,-1,-1,-1,-1,-1,-1,-1,-1,-1,-1,-1,-1,-1,-1,-1,-1,-1,-1,-1,-1,-1],"split_conditions":[2.16E1,1.025E1,3.54783E1,4.7667E0,1.60989E1,2.76E1,4.66027E1,2.1038E0,7.875E0,1.30938E1,1.87955E1,2.45116E1,3.12063E1,4.05E1,5.43458E1,9.302E-1,3.3088E0,6.3826E0,9.0833E0,1.16964E1,1.468E1,2.912E5,2.01752E1,2.25333E1,3.1616E5,2.90556E1,3.31502E1,3.775E1,4.33736E1,5.08994E1,6.03333E1,3.333E-1,1.6806E0,2.5964E0,4.0515E0,2.69107E5,3.9813E4,-1.0102E1,2.12133E5,2.62531E5,3.6544E5,3.20413E5,3.49067E5,1.7728E1,8.2E-2,5.29E-1,3.35018E5,7.92E-1,2.69107E5,2.62533E1,3.78E2,6.64E-1,-3.4533E1,3.58767E5,2.812E5,7.92E-1,2.49067E5,6.64E-1,4.48511E1,4.85217E1,5.25E1,5.66667E1,7.92E-1,-6.357516E-1,-6.1490935E-1,-5.904267E-1,-5.6943053E-1,-5.5615723E-1,-5.321127E-1,-5.077082E-1,-4.8709455E-1,-4.3520758E-1,-4.6135828E-1,-5.778102E-1,-3.90012E-1,-3.6606687E-1,-3.338609E-1,-2.794109E-1,-3.1680372E-1,-2.441274E-1,-2.7646908E-1,-1.982654E-1,-2.6249394E-1,-1.4627068E-1,-1.9775368E-1,-9.738849E-2,-1.456301E-1,-3.6712766E-2,1.0768286E-2,-1.0450031E-1,-3.733683E-2,4.540685E-2,-3.4071784E-2,9.642855E-2,2.4752561E-2,1.3183849E-1,1.0911742E-2,1.9437304E-1,1.4264883E-1,2.55346E-1,3.0379567E-1,2.0971985E-1,-2.3318498E-1,3.5281917E-1,2.246098E-1,6.8001926E-1,4.0232977E-1,4.8298612E-1,3.5166988E-1,5.6029636E-1,4.8561716E-1,6.3832194E-1,4.3648478E-1,7.310483E-1,6.6541976E-1,8.212668E-1,6.729157E-1,8.9716166E-1,9.441115E-1,1.0060562E0,1.0863316E0,1.1545548E0,1.2200226E0,1.2774278E0,1.3814573E0,1.588848E0,1.0739039E0],"split_indices":[12,12,12,12,12,12,12,12,12,12,12,12,12,12,12,12,12,12,12,12,12,9,12,12,9,12,12,12,12,12,12,12,12,12,12,9,9,2,9,9,9,9,9,12,4,6,9,6,9,12,13,6,2,9,9,6,9,6,12,12,12,12,6,0,0,0,0,0,0,0,0,0,0,0,0,0,0,0,0,0,0,0,0,0,0,0,0,0,0,0,0,0,0,0,0,0,0,0,0,0,0,0,0,0,0,0,0,0,0,0,0,0,0,0,0,0,0,0,0,0,0,0,0,0,0,0,0],"split_type":[0,0,0,0,0,0,0,0,0,0,0,0,0,0,0,0,0,0,0,0,0,0,0,0,0,0,0,0,0,0,0,0,0,0,0,0,0,0,0,0,0,0,0,0,0,0,0,0,0,0,0,0,0,0,0,0,0,0,0,0,0,0,0,0,0,0,0,0,0,0,0,0,0,0,0,0,0,0,0,0,0,0,0,0,0,0,0,0,0,0,0,0,0,0,0,0,0,0,0,0,0,0,0,0,0,0,0,0,0,0,0,0,0,0,0,0,0,0,0,0,0,0,0,0,0,0,0],"sum_hessian":[8.35076E5,5.30548E5,3.04528E5,2.61786E5,2.68762E5,2.08314E5,9.6214E4,1.43415E5,1.18371E5,1.47528E5,1.21234E5,1.12248E5,9.6066E4,6.7345E4,2.8869E4,8.588E4,5.7535E4,6.0841E4,5.753E4,7.0483E4,7.7045E4,6.3687E4,5.7547E4,5.7852E4,5.4396E4,5.1196E4,4.487E4,3.8487E4,2.8858E4,1.9263E4,9.606E3,5.7162E4,2.8718E4,2.3756E4,3.3779E4,3.1984E4,2.8857E4,2.8741E4,2.8789E4,3.5345E4,3.5138E4,4.1341E4,3.5704E4,4.7031E4,1.6656E4,2.8652E4,2.8895E4,1.9333E4,3.8519E4,4.6371E4,8.025E3,2.2407E4,2.8789E4,2.2303E4,2.2567E4,1.9184E4,1.9303E4,1.6037E4,1.2821E4,1.2792E4,6.471E3,6.422E3,3.184E3,3.4463E4,2.2699E4,1.9188E4,9.53E3,9.578E3,1.4178E4,1.7718E4,1.6061E4,1.9785E4,1.2199E4,1.55E2,2.8702E4,8.889E3,1.9852E4,1.0727E4,1.8062E4,2.1631E4,1.3714E4,3.0067E4,5.071E3,3.2479E4,8.862E3,3.0297E4,5.407E3,2.7584E4,1.9447E4,8.694E3,7.962E3,2.6209E4,2.443E3,2.4757E4,4.138E3,1.8442E4,8.91E2,2.7454E4,1.1065E4,2.7029E4,1.9342E4,7.852E3,1.73E2,2.1374E4,1.033E3,1.78E2,2.8611E4,2.1095E4,1.208E3,1.9229E4,3.338E3,1.8794E4,3.9E2,1.4743E4,4.56E3,1.5357E4,6.8E2,6.343E3,6.478E3,6.405E3,6.387E3,3.24E3,3.231E3,3.198E3,3.224E3,3.158E3,2.6E1],"tree_param":{"num_deleted":"0","num_feature":"14","num_nodes":"127","size_leaf_vector":"1"}},{"base_weights":[-5.720123E-4,9.429921E-1,-3.3677845E0,1.5798016E0,-2.0455317E0,-1.6014907E0,-4.673104E0,-7.1234584E-1,2.447806E0,-6.434437E-1,-4.4263377E0,-4.253988E0,-1.116159E0,-3.0961144E0,-5.896448E0,-3.3845458E0,-3.310786E-1,4.972278E-1,3.4615371E0,2.058169E-1,-3.3003285E0,-3.3177285E0,-6.8592763E0,-2.9116333E0,-5.567359E0,1.7538103E-1,-1.906589E0,-2.29767E0,-4.455067E0,-4.4032197E0,-7.0673876E0,-5.816851E0,-2.291624E0,3.153269E0,-6.4577305E-1,3.7267277E0,-7.1888655E-1,4.259383E0,1.6369396E0,-1.7123297E0,1.6226003E0,-2.610725E0,-5.6628E0,-2.8854868E0,-9.514554E0,-7.7575617E0,-3.9514635E0,-1.7516236E0,-3.8659172E0,-4.8781066E0,-7.8740454E0,9.246247E-1,-2.4171968E0,-8.0672495E-2,-2.5382588E0,-2.0807567E0,-4.518053E0,-4.095546E0,-6.475309E0,-3.3552961E0,-5.0965147E0,-5.0938687E0,-7.650663E0,-1.1958158E-1,-3.280731E-1,-1.9951649E-1,-4.591234E-2,5.2513343E-1,1.1259874E-1,1.1408425E-2,-8.112452E-2,2.0039235E-1,-3.043683E-1,1.0480943E-2,-1.464086E-1,2.3404033E-1,1.8686993E-2,1.189433E-1,-3.464805E-2,-1.6841978E-1,-3.7651177E-2,-2.3958723E-1,9.542261E-2,8.200203E-2,-1.444865E-1,-1.7351918E-1,-3.7652692E-1,-2.5738922E-3,-1.8579207E-1,-5.623206E-1,-4.5981064E-1,-3.0358943E-1,-4.8553824E-1,-1.1940533E-1,-3.4189472E-1,-5.9916433E-2,-2.62226E-1,-1.8437138E-1,-5.168691E-1,4.4562344E-2,-2.5170127E-1,-3.093552E-1,-4.5274854E-1,9.306427E-2,-2.2584215E-2,-8.233434E-2,-2.289584E-1,1.1848436E-2,-1.13742664E-1,-9.012284E-2,-1.5952586E-1,1.5587093E-2,-1.1557867E-1,-2.6768082E-1,-1.4213197E-1,-7.226644E-2,-2.1644692E-1,-2.2688754E-1,-4.0185848E-1,-2.872608E-1,-1.4794414E-1,-2.0143084E-1,-2.9912123E-1,-2.8219873E-1,-1.4871523E-1,-3.1136787E-1,-4.1188073E-1],"categories":[],"categories_nodes":[],"categories_segments":[],"categories_sizes":[],"default_left":[0,0,0,0,0,0,0,0,0,0,0,0,0,0,0,0,0,0,0,0,0,0,0,0,0,0,0,0,0,0,0,0,0,0,0,0,0,0,0,0,0,0,0,0,0,0,0,0,0,0,0,0,0,0,0,0,0,0,0,0,0,0,0,0,0,0,0,0,0,0,0,0,0,0,0,0,0,0,0,0,0,0,0,0,0,0,0,0,0,0,0,0,0,0,0,0,0,0,0,0,0,0,0,0,0,0,0,0,0,0,0,0,0,0,0,0,0,0,0,0,0,0,0,0,0,0,0],"id":9,"left_children":[1,3,5,7,9,11,13,15,17,19,21,23,25,27,29,31,33,35,37,39,41,43,45,47,49,51,53,55,57,59,61,63,65,67,69,71,73,75,77,79,81,83,85,87,89,91,93,95,97,99,101,103,105,107,109,111,113,115,117,119,121,123,125,-1,-1,-1,-1,-1,-1,-1,-1,-1,-1,-1,-1,-1,-1,-1,-1,-1,-1,-1,-1,-1,-1,-1,-1,-1,-1,-1,-1,-1,-1,-1,-1,-1,-1,-1,-1,-1,-1,-1,-1,-1,-1,-1,-1,-1,-1,-1,-1,-1,-1,-1,-1,-1,-1,-1,-1,-1,-1,-1,-1,-1,-1,-1,-1],"loss_changes":[2.6546745E6,1.242086E6,4.21655E5,1.070431E6,3.8268684E5,1.00049984E5,2.0287E5,1.505584E5,7.71638E5,1.6280583E5,1.14583E5,2.1176922E4,6.707367E4,4.984228E4,1.0351925E5,4.9037984E4,1.4180973E5,5.2413544E5,3.73806E5,1.485929E5,2.8458203E4,7.816409E4,3.4709562E4,6.5764297E3,9.6201875E3,4.8457207E4,4.7009094E4,1.3930422E4,1.2323125E4,1.8895656E4,3.81685E4,1.4572906E4,2.9701969E4,7.0938945E4,1.012494E5,1.0074466E5,1.9887331E5,2.92554E5,1.3504967E5,3.6900773E4,5.767254E4,1.6051117E4,1.6140375E4,6.42195E4,9.457344E2,3.3394438E4,1.41575E4,5.1846855E3,3.7297852E3,4.214383E3,2.7250156E3,2.4949463E4,9.309391E3,7.3026113E3,1.4527578E4,1.456243E4,3.5895586E3,8.923625E3,7.7317656E3,9.805609E3,1.47959375E4,8.815547E3,2.1350125E4,0E0,0E0,0E0,0E0,0E0,0E0,0E0,0E0,0E0,0E0,0E0,0E0,0E0,0E0,0E0,0E0,0E0,0E0,0E0,0E0,0E0,0E0,0E0,0E0,0E0,0E0,0E0,0E0,0E0,0E0,0E0,0E0,0E0,0E0,0E0,0E0,0E0,0E0,0E0,0E0,0E0,0E0,0E0,0E0,0E0,0E0,0E0,0E0,0E0,0E0,0E0,0E0,0E0,0E0,0E0,0E0,0E0,0E0,0E0,0E0,0E0,0E0,0E0,0E0],"parents":[2147483647,0,0,1,1,2,2,3,3,4,4,5,5,6,6,7,7,8,8,9,9,10,10,11,11,12,12,13,13,14,14,15,15,16,16,17,17,18,18,19,19,20,20,21,21,22,22,23,23,24,24,25,25,26,26,27,27,28,28,29,29,30,30,31,31,32,32,33,33,34,34,35,35,36,36,37,37,38,38,39,39,40,40,41,41,42,42,43,43,44,44,45,45,46,46,47,47,48,48,49,49,50,50,51,51,52,52,53,53,54,54,55,55,56,56,57,57,58,58,59,59,60,60,61,61,62,62],"right_children":[2,4,6,8,10,12,14,16,18,20,22,24,26,28,30,32,34,36,38,40,42,44,46,48,50,52,54,56,58,60,62,64,66,68,70,72,74,76,78,80,82,84,86,88,90,92,94,96,98,100,102,104,106,108,110,112,114,116,118,120,122,124,126,-1,-1,-1,-1,-1,-1,-1,-1,-1,-1,-1,-1,-1,-1,-1,-1,-1,-1,-1,-1,-1,-1,-1,-1,-1,-1,-1,-1,-1,-1,-1,-1,-1,-1,-1,-1,-1,-1,-1,-1,-1,-1,-1,-1,-1,-1,-1,-1,-1,-1,-1,-1,-1,-1,-1,-1,-1,-1,-1,-1,-1,-1,-1,-1],"split_conditions":[2.99253E5,1.45E2,1.57E-1,4.44E-1,7.15E-1,-1.1793E1,1.24255E2,3.38E-5,-8.405E0,1.1E-1,5.22E-2,4.74E-2,2.24E-5,5.26E-2,5.95E-1,1.49933E5,7E0,1.8E1,2.344E5,-6.723E0,6.8E-1,4.058E3,7.97E-1,6.3E1,9.27E-1,6.11E-1,3.72E-2,6.2636E5,1.55E2,4.46E-2,2.1E1,1.7E1,2.83E-1,-2.6454E1,1.58E-1,5.82E-1,2E-1,6.2E-1,4.69E-2,-9.598E0,1.1912E5,-2.1307E1,1.25065E2,-2.2451E1,3.26E-6,9.47E-1,-1.8246E1,4.8328E5,4.058E3,4E0,5.78E-2,7.75E-1,4.08189E5,4.3875E5,1.24255E2,8E0,1.25E2,6E0,4.6E-1,2.63E-4,4.03E-1,4.67E-2,4.85E-2,-1.1958158E-1,-3.280731E-1,-1.9951649E-1,-4.591234E-2,5.2513343E-1,1.1259874E-1,1.1408425E-2,-8.112452E-2,2.0039235E-1,-3.043683E-1,1.0480943E-2,-1.464086E-1,2.3404033E-1,1.8686993E-2,1.189433E-1,-3.464805E-2,-1.6841978E-1,-3.7651177E-2,-2.3958723E-1,9.542261E-2,8.200203E-2,-1.444865E-1,-1.7351918E-1,-3.7652692E-1,-2.5738922E-3,-1.8579207E-1,-5.623206E-1,-4.5981064E-1,-3.0358943E-1,-4.8553824E-1,-1.1940533E-1,-3.4189472E-1,-5.9916433E-2,-2.62226E-1,-1.8437138E-1,-5.168691E-1,4.4562344E-2,-2.5170127E-1,-3.093552E-1,-4.5274854E-1,9.306427E-2,-2.2584215E-2,-8.233434E-2,-2.289584E-1,1.1848436E-2,-1.13742664E-1,-9.012284E-2,-1.5952586E-1,1.5587093E-2,-1.1557867E-1,-2.6768082E-1,-1.4213197E-1,-7.226644E-2,-2.1644692E-1,-2.2688754E-1,-4.0185848E-1,-2.872608E-1,-1.4794414E-1,-2.0143084E-1,-2.9912123E-1,-2.8219873E-1,-1.4871523E-1,-3.1136787E-1,-4.1188073E-1],"split_indices":[9,13,5,0,4,2,8,4,2,5,3,3,5,3,0,9,13,13,9,2,0,13,5,13,4,4,3,9,13,3,13,13,0,2,6,3,6,4,5,2,9,2,8,2,5,4,2,9,13,13,3,1,9,9,8,13,13,13,0,4,0,4,3,0,0,0,0,0,0,0,0,0,0,0,0,0,0,0,0,0,0,0,0,0,0,0,0,0,0,0,0,0,0,0,0,0,0,0,0,0,0,0,0,0,0,0,0,0,0,0,0,0,0,0,0,0,0,0,0,0,0,0,0,0,0,0,0],"split_type":[0,0,0,0,0,0,0,0,0,0,0,0,0,0,0,0,0,0,0,0,0,0,0,0,0,0,0,0,0,0,0,0,0,0,0,0,0,0,0,0,0,0,0,0,0,0,0,0,0,0,0,0,0,0,0,0,0,0,0,0,0,0,0,0,0,0,0,0,0,0,0,0,0,0,0,0,0,0,0,0,0,0,0,0,0,0,0,0,0,0,0,0,0,0,0,0,0,0,0,0,0,0,0,0,0,0,0,0,0,0,0,0,0,0,0,0,0,0,0,0,0,0,0,0,0,0,0],"sum_hessian":[8.35542E5,6.52655E5,1.82887E5,5.38013E5,1.14642E5,7.7721E4,1.05166E5,1.47777E5,3.90236E5,7.2152E4,4.249E4,1.202E4,6.5701E4,4.5944E4,5.9222E4,1.8451E4,1.29326E5,1.33453E5,2.56783E5,5.4676E4,1.7476E4,2.9191E4,1.3299E4,5.946E3,6.074E3,2.4944E4,4.0757E4,2.8942E4,1.7002E4,2.6031E4,3.3191E4,5.719E3,1.2732E4,1.0712E4,1.18614E5,3.6506E4,9.6947E4,1.78659E5,7.8124E4,2.3228E4,3.1448E4,1.3529E4,3.947E3,2.7289E4,1.902E3,1.0159E4,3.14E3,2.685E3,3.261E3,4.679E3,1.395E3,1.9352E4,5.592E3,1.0476E4,3.0281E4,2.6368E4,2.574E3,1.4436E4,2.566E3,1.0367E4,1.5664E4,7.574E3,2.5617E4,1.022E3,4.697E3,5.691E3,7.041E3,1.169E3,9.543E3,6.2601E4,5.6013E4,3.549E4,1.016E3,6.826E4,2.8687E4,1.61178E5,1.7481E4,5.9255E4,1.8869E4,8.519E3,1.4709E4,1.341E3,3.0107E4,8.33E2,1.2696E4,1.817E3,2.13E3,6.184E3,2.1105E4,2.9E2,1.612E3,5.455E3,4.704E3,2.038E3,1.102E3,2.319E3,3.66E2,3.175E3,8.6E1,1.23E2,4.556E3,5.77E2,8.18E2,1.1515E4,7.837E3,4.124E3,1.468E3,9.152E3,1.324E3,1.4231E4,1.605E4,2.32E3,2.4048E4,1.716E3,8.58E2,1.169E3,1.3267E4,1.147E3,1.419E3,1.473E3,8.894E3,7.105E3,8.559E3,6.012E3,1.562E3,7.483E3,1.8134E4],"tree_param":{"num_deleted":"0","num_feature":"14","num_nodes":"127","size_leaf_vector":"1"}},{"base_weights":[-2.454475E-3,9.4298536E-1,-3.0206108E0,-8.4447587E-1,1.9357965E0,-1.3254548E0,-4.360326E0,2.0418394E0,-2.2375429E0,-1.7073243E0,2.6382856E0,-3.8930144E0,-8.4489065E-1,-2.8738441E0,-5.508545E0,3.044759E0,-6.490923E-1,-1.264368E0,-3.77214E0,-4.5548797E0,-5.3893375E-1,3.5421832E0,5.266369E-1,-1.9754832E0,-4.823212E0,3.2340613E-1,-1.7204722E0,-2.1329389E0,-4.232811E0,-4.250388E0,-6.863977E0,4.988999E0,1.9464158E0,9.250539E-2,-5.8409047E0,-1.016112E0,-7.639282E0,-2.8560817E0,-5.4908195E0,-8.502086E0,-3.8881352E0,1.2690833E0,-2.118586E0,4.585051E0,1.1770226E0,1.3104923E0,-2.389636E0,2.9802632E0,-2.235247E0,-4.320756E0,-6.725582E0,1.6228342E0,-1.1864318E0,1.8781897E-1,-2.3460002E0,5.7270783E-1,-2.280261E0,-3.8932805E0,-6.178098E0,-3.4859416E0,-5.2980533E0,-5.7297645E0,-7.7126145E0,2.702662E-1,2.1064866E-4,1.3246876E-1,-3.3538554E-2,-6.0581204E-2,1.1338127E-1,-2.9755664E-1,3.4426975E-1,-1.1496788E-2,-1.1555346E-1,-4.4212887E-1,-1.8390852E-1,-1.0774952E-1,-2.1678391E-1,-2.2868179E-1,-3.6456853E-1,-5.2916783E-1,-3.571455E-1,-2.848605E-1,-1.5234849E-1,1.2727831E-1,1.8698277E-2,-1.7875426E-1,-7.064108E-2,1.8352601E-1,3.4828565E-1,9.993961E-2,-2.6778087E-2,1.8882842E-1,2.7055431E-2,-9.889918E-2,-3.7359768E-1,2.119373E-1,-3.268623E-2,-1.0263065E-1,-3.431227E-1,-1.8398888E-1,-2.8373465E-1,-2.716679E-1,-4.2652732E-1,1.0670439E-1,-1.8828576E-2,-1.6040383E-2,-1.8234982E-1,2.9201493E-2,-7.175862E-2,-8.8711806E-2,-1.5787569E-1,-1.10397756E-1,6.003545E-2,-9.1882095E-2,-1.5930346E-1,-7.758688E-2,-2.0472312E-1,-2.0544393E-1,-3.7628677E-1,-1.394315E-1,-2.2006886E-1,-2.022825E-1,-3.0439845E-1,-2.0849495E-1,-3.2723728E-1,-4.6046457E-1,-3.652522E-1],"categories":[],"categories_nodes":[],"categories_segments":[],"categories_sizes":[],"default_left":[0,0,0,0,0,0,0,0,0,0,0,0,0,0,0,0,0,0,0,0,0,0,0,0,0,0,0,0,0,0,0,0,0,0,0,0,0,0,0,0,0,0,0,0,0,0,0,0,0,0,0,0,0,0,0,0,0,0,0,0,0,0,0,0,0,0,0,0,0,0,0,0,0,0,0,0,0,0,0,0,0,0,0,0,0,0,0,0,0,0,0,0,0,0,0,0,0,0,0,0,0,0,0,0,0,0,0,0,0,0,0,0,0,0,0,0,0,0,0,0,0,0,0,0,0,0,0],"id":10,"left_children":[1,3,5,7,9,11,13,15,17,19,21,23,25,27,29,31,33,35,37,39,41,43,45,47,49,51,53,55,57,59,61,63,65,67,69,71,73,75,77,79,81,83,85,87,89,91,93,95,97,99,101,103,105,107,109,111,113,115,117,119,121,123,125,-1,-1,-1,-1,-1,-1,-1,-1,-1,-1,-1,-1,-1,-1,-1,-1,-1,-1,-1,-1,-1,-1,-1,-1,-1,-1,-1,-1,-1,-1,-1,-1,-1,-1,-1,-1,-1,-1,-1,-1,-1,-1,-1,-1,-1,-1,-1,-1,-1,-1,-1,-1,-1,-1,-1,-1,-1,-1,-1,-1,-1,-1,-1,-1],"loss_changes":[2.3823462E6,1.1281985E6,4.5226225E5,9.1280944E5,1.046035E6,1.0847058E5,1.8984075E5,1.9944781E5,2.2866644E5,2.1982612E5,6.5402475E5,2.4712312E4,7.575328E4,4.8802812E4,1.0699325E5,1.1495619E5,7.725938E4,1.4828289E5,9.353425E4,5.0557625E4,1.3381094E5,5.918285E5,2.3479166E5,5.8369473E3,8.891E3,6.2244023E4,5.052933E4,1.2507844E4,1.1272875E4,2.60495E4,2.9032875E4,4.0331188E4,6.329743E4,4.9811273E4,3.5591875E3,9.18177E4,1.6707031E4,4.019972E4,3.4082E4,7.7800312E3,2.5010562E4,2.4961488E4,2.5698719E4,3.6251975E5,1.0333572E5,1.535929E5,4.550829E4,1.036339E3,3.623162E3,6.3881406E3,4.497203E3,1.7430395E4,3.1255463E4,6.7213203E3,1.4786531E4,2.833338E3,1.1924141E4,6.8548594E3,7.0520156E3,1.2002016E4,1.3557375E4,1.6413938E4,1.04718125E4,0E0,0E0,0E0,0E0,0E0,0E0,0E0,0E0,0E0,0E0,0E0,0E0,0E0,0E0,0E0,0E0,0E0,0E0,0E0,0E0,0E0,0E0,0E0,0E0,0E0,0E0,0E0,0E0,0E0,0E0,0E0,0E0,0E0,0E0,0E0,0E0,0E0,0E0,0E0,0E0,0E0,0E0,0E0,0E0,0E0,0E0,0E0,0E0,0E0,0E0,0E0,0E0,0E0,0E0,0E0,0E0,0E0,0E0,0E0,0E0,0E0,0E0,0E0,0E0],"parents":[2147483647,0,0,1,1,2,2,3,3,4,4,5,5,6,6,7,7,8,8,9,9,10,10,11,11,12,12,13,13,14,14,15,15,16,16,17,17,18,18,19,19,20,20,21,21,22,22,23,23,24,24,25,25,26,26,27,27,28,28,29,29,30,30,31,31,32,32,33,33,34,34,35,35,36,36,37,37,38,38,39,39,40,40,41,41,42,42,43,43,44,44,45,45,46,46,47,47,48,48,49,49,50,50,51,51,52,52,53,53,54,54,55,55,56,56,57,57,58,58,59,59,60,60,61,61,62,62],"right_children":[2,4,6,8,10,12,14,16,18,20,22,24,26,28,30,32,34,36,38,40,42,44,46,48,50,52,54,56,58,60,62,64,66,68,70,72,74,76,78,80,82,84,86,88,90,92,94,96,98,100,102,104,106,108,110,112,114,116,118,120,122,124,126,-1,-1,-1,-1,-1,-1,-1,-1,-1,-1,-1,-1,-1,-1,-1,-1,-1,-1,-1,-1,-1,-1,-1,-1,-1,-1,-1,-1,-1,-1,-1,-1,-1,-1,-1,-1,-1,-1,-1,-1,-1,-1,-1,-1,-1,-1,-1,-1,-1,-1,-1,-1,-1,-1,-1,-1,-1,-1,-1,-1,-1,-1,-1,-1],"split_conditions":[2.912E5,-8.74E0,1.57E-1,3.1E1,3.82E-1,-1.16E1,1.2402E2,1.78E-1,4.64E-1,1.61907E5,7.22E-1,3.94E-2,4.86E-5,5.36E-2,6.34E-1,1E1,4.71E-1,1.345E3,1.32E2,6.0552E4,1.18E-3,4.36E-3,4.85E-1,6E0,9.47E-1,5.2E-1,3.67E-2,5E0,1.55E2,2.78E-1,4.7E1,6.9E-1,6.43E-1,6.01E-1,8.2E-1,1.36E-1,8.24E-1,2.31E-1,8.74E-1,3.9813E4,1.79E-1,1.1E-6,2.43E-1,6.59E-1,2.42293E5,2E1,8.68E-1,3.8494E5,7.11627E5,1.22E-1,5.54E-2,6.38E-1,5.48E-1,3.9375E5,3.58767E5,2.92E-1,3.49E-1,6E0,4.19E-1,5.5E-2,4.4E-2,2.78E-1,7.06E-2,2.702662E-1,2.1064866E-4,1.3246876E-1,-3.3538554E-2,-6.0581204E-2,1.1338127E-1,-2.9755664E-1,3.4426975E-1,-1.1496788E-2,-1.1555346E-1,-4.4212887E-1,-1.8390852E-1,-1.0774952E-1,-2.1678391E-1,-2.2868179E-1,-3.6456853E-1,-5.2916783E-1,-3.571455E-1,-2.848605E-1,-1.5234849E-1,1.2727831E-1,1.8698277E-2,-1.7875426E-1,-7.064108E-2,1.8352601E-1,3.4828565E-1,9.993961E-2,-2.6778087E-2,1.8882842E-1,2.7055431E-2,-9.889918E-2,-3.7359768E-1,2.119373E-1,-3.268623E-2,-1.0263065E-1,-3.431227E-1,-1.8398888E-1,-2.8373465E-1,-2.716679E-1,-4.2652732E-1,1.0670439E-1,-1.8828576E-2,-1.6040383E-2,-1.8234982E-1,2.9201493E-2,-7.175862E-2,-8.8711806E-2,-1.5787569E-1,-1.10397756E-1,6.003545E-2,-9.1882095E-2,-1.5930346E-1,-7.758688E-2,-2.0472312E-1,-2.0544393E-1,-3.7628677E-1,-1.394315E-1,-2.2006886E-1,-2.022825E-1,-3.0439845E-1,-2.0849495E-1,-3.2723728E-1,-4.6046457E-1,-3.652522E-1],"split_indices":[9,2,5,13,0,2,8,6,7,9,7,3,5,3,0,13,3,13,13,9,5,5,4,13,4,7,3,13,13,7,13,1,7,0,0,6,5,6,4,9,7,5,0,0,9,13,4,9,9,3,3,4,4,9,9,0,7,13,0,3,3,7,6,0,0,0,0,0,0,0,0,0,0,0,0,0,0,0,0,0,0,0,0,0,0,0,0,0,0,0,0,0,0,0,0,0,0,0,0,0,0,0,0,0,0,0,0,0,0,0,0,0,0,0,0,0,0,0,0,0,0,0,0,0,0,0,0],"split_type":[0,0,0,0,0,0,0,0,0,0,0,0,0,0,0,0,0,0,0,0,0,0,0,0,0,0,0,0,0,0,0,0,0,0,0,0,0,0,0,0,0,0,0,0,0,0,0,0,0,0,0,0,0,0,0,0,0,0,0,0,0,0,0,0,0,0,0,0,0,0,0,0,0,0,0,0,0,0,0,0,0,0,0,0,0,0,0,0,0,0,0,0,0,0,0,0,0,0,0,0,0,0,0,0,0,0,0,0,0,0,0,0,0,0,0,0,0,0,0,0,0,0,0,0,0,0,0],"sum_hessian":[8.34888E5,6.35742E5,1.99146E5,2.27018E5,4.08724E5,8.7912E4,1.11234E5,7.3901E4,1.53117E5,6.6072E4,3.42652E5,1.3859E4,7.4053E4,4.8478E4,6.2756E4,5.3836E4,2.0065E4,9.3699E4,5.9418E4,1.9222E4,4.685E4,2.39943E5,1.02709E5,4.528E3,9.331E3,3.1724E4,4.2329E4,3.1375E4,1.7103E4,3.2548E4,3.0208E4,1.9433E4,3.4403E4,1.7558E4,2.507E3,9.0188E4,3.511E3,3.8761E4,2.0657E4,2.776E3,1.6446E4,2.1846E4,2.5004E4,1.66519E5,7.3424E4,8.0951E4,2.1758E4,2.25E2,4.303E3,7.384E3,1.947E3,1.705E4,1.4674E4,1.045E4,3.1879E4,1.62E3,2.9755E4,1.4564E4,2.539E3,1.882E4,1.3728E4,1.2932E4,1.7276E4,1.7935E4,1.498E3,2.7119E4,7.284E3,1.0977E4,6.581E3,2.486E3,2.1E1,5.6119E4,3.4069E4,2.692E3,8.19E2,2.6301E4,1.246E4,1.3688E4,6.969E3,1.094E3,1.682E3,5.218E3,1.1228E4,9.004E3,1.2842E4,8.16E3,1.6844E4,1.20306E5,4.6213E4,4.9616E4,2.3808E4,1.9249E4,6.1702E4,2.0129E4,1.629E3,1.67E2,5.8E1,4.141E3,1.62E2,5.014E3,2.37E3,1.137E3,8.1E2,1.3578E4,3.472E3,1.0856E4,3.818E3,8.4E3,2.05E3,1.8704E4,1.3175E4,2.98E2,1.322E3,1.999E4,9.765E3,1.153E3,1.3411E4,1.003E3,1.536E3,1.0685E4,8.135E3,5.312E3,8.416E3,4.44E3,8.492E3,3.693E3,1.3583E4],"tree_param":{"num_deleted":"0","num_feature":"14","num_nodes":"127","size_leaf_vector":"1"}},{"base_weights":[-3.6852406E-3,-5.522855E0,9.020555E0,-9.313158E0,-2.1801538E0,5.7202106E0,1.660302E1,-1.0725945E1,-7.26683E0,-3.9221025E0,-2.7431867E-1,3.6965687E0,8.194757E0,1.4070156E1,2.2525978E1,-1.1468797E1,-9.623344E0,-8.065866E0,-6.51685E0,-4.9491343E0,-3.0934222E0,-1.3189203E0,5.479634E-1,2.6444006E0,4.7289286E0,7.0363073E0,9.598435E0,1.2403822E1,1.58549795E1,2.0450382E1,2.6634016E1,-1.1741465E1,-1.0824408E1,-1.0125085E1,-9.269864E0,-8.451691E0,-7.6558094E0,-6.8731985E0,-6.160595E0,-5.399958E0,-4.5805526E0,-3.5200202E0,-2.5439765E0,-1.7717977E0,-9.513967E-1,1.7834902E-2,1.1173729E0,2.2071552E0,3.133303E0,4.096664E0,5.195898E0,6.513844E0,7.7728343E0,9.032415E0,1.0343901E1,1.1903023E1,1.3304932E1,1.4827435E1,1.6914614E1,1.9569511E1,2.2194378E1,2.498289E1,2.99321E1,-5.963437E-1,-5.650789E-1,-5.48772E-1,-5.2391934E-1,-5.15938E-1,-4.949176E-1,-4.411295E-1,-4.6796113E-1,-4.0228677E-1,-4.3004328E-1,-3.885717E-1,-3.4707057E-1,-2.9040506E-1,-3.4809434E-1,-5.6689346E-1,-3.0721644E-1,-4.978443E-1,-2.690066E-1,-2.0473047E-1,-2.3975924E-1,-1.8889606E-1,-1.5882818E-1,-1.2093135E-1,-1.710809E-1,-8.0542974E-2,-1.3293475E-1,-4.1565895E-2,-1.5100627E-1,-9.8114675E-3,3.585172E-2,6.1660457E-2,-1.8020958E-3,1.15784764E-1,4.1741412E-2,1.7087193E-1,1.2270578E-1,2.114073E-1,1.1974154E-1,2.6621494E-1,2.2053818E-1,3.28684E-1,1.4584777E-1,4.0595588E-1,3.6339352E-1,4.5763022E-1,3.296629E-1,5.3013E-1,4.7065803E-1,6.0098004E-1,4.9681383E-1,6.6736096E-1,4.464151E-1,7.484807E-1,5.839526E-1,8.143429E-1,8.661403E-1,9.402217E-1,1.0165695E0,1.0776014E0,1.1416901E0,1.2030187E0,1.2954707E0,1.502553E0,1.24125E0],"categories":[],"categories_nodes":[],"categories_segments":[],"categories_sizes":[],"default_left":[0,0,0,0,0,0,0,0,0,0,0,0,0,0,0,0,0,0,0,0,0,0,0,0,0,0,0,0,0,0,0,0,0,0,0,0,0,0,0,0,0,0,0,0,0,0,0,0,0,0,0,0,0,0,0,0,0,0,0,0,0,0,0,0,0,0,0,0,0,0,0,0,0,0,0,0,0,0,0,0,0,0,0,0,0,0,0,0,0,0,0,0,0,0,0,0,0,0,0,0,0,0,0,0,0,0,0,0,0,0,0,0,0,0,0,0,0,0,0,0,0,0,0,0,0,0,0],"id":11,"left_children":[1,3,5,7,9,11,13,15,17,19,21,23,25,27,29,31,33,35,37,39,41,43,45,47,49,51,53,55,57,59,61,63,65,67,69,71,73,75,77,79,81,83,85,87,89,91,93,95,97,99,101,103,105,107,109,111,113,115,117,119,121,123,125,-1,-1,-1,-1,-1,-1,-1,-1,-1,-1,-1,-1,-1,-1,-1,-1,-1,-1,-1,-1,-1,-1,-1,-1,-1,-1,-1,-1,-1,-1,-1,-1,-1,-1,-1,-1,-1,-1,-1,-1,-1,-1,-1,-1,-1,-1,-1,-1,-1,-1,-1,-1,-1,-1,-1,-1,-1,-1,-1,-1,-1,-1,-1,-1],"loss_changes":[4.160082E7,6.566471E6,7.932126E6,7.02086E5,9.142934E5,1.105898E6,1.44177E6,1.17572E5,5.9394E4,1.2244425E5,1.1296647E5,1.3195838E5,1.61493E5,2.00065E5,2.44954E5,1.4954E4,1.01645E4,7.5335E3,6.4545E3,1.0651625E4,1.8657062E4,9.639859E3,2.2213562E4,1.28563125E4,1.80845E4,2.0897E4,1.88605E4,1.55585E4,3.5145E4,2.8957E4,5.1862E4,4.7835E3,1.2195E3,9.475E2,1.274E3,1.428625E3,1.870125E3,2.3755E3,2.0863125E3,2.557125E3,3.668125E3,3.9586875E3,3.82125E3,3.6995781E3,7.941408E3,5.704202E3,4.7404297E3,4.7299844E3,5.4734375E3,5.8201875E3,3.5320625E3,6.836E3,3.89025E3,7.42725E3,4.566625E3,5.0155E3,2.182E3,7.2165E3,3.817E3,7.0325E3,2.142E3,4.8845E3,1.20925E3,0E0,0E0,0E0,0E0,0E0,0E0,0E0,0E0,0E0,0E0,0E0,0E0,0E0,0E0,0E0,0E0,0E0,0E0,0E0,0E0,0E0,0E0,0E0,0E0,0E0,0E0,0E0,0E0,0E0,0E0,0E0,0E0,0E0,0E0,0E0,0E0,0E0,0E0,0E0,0E0,0E0,0E0,0E0,0E0,0E0,0E0,0E0,0E0,0E0,0E0,0E0,0E0,0E0,0E0,0E0,0E0,0E0,0E0,0E0,0E0,0E0,0E0,0E0,0E0],"parents":[2147483647,0,0,1,1,2,2,3,3,4,4,5,5,6,6,7,7,8,8,9,9,10,10,11,11,12,12,13,13,14,14,15,15,16,16,17,17,18,18,19,19,20,20,21,21,22,22,23,23,24,24,25,25,26,26,27,27,28,28,29,29,30,30,31,31,32,32,33,33,34,34,35,35,36,36,37,37,38,38,39,39,40,40,41,41,42,42,43,43,44,44,45,45,46,46,47,47,48,48,49,49,50,50,51,51,52,52,53,53,54,54,55,55,56,56,57,57,58,58,59,59,60,60,61,61,62,62],"right_children":[2,4,6,8,10,12,14,16,18,20,22,24,26,28,30,32,34,36,38,40,42,44,46,48,50,52,54,56,58,60,62,64,66,68,70,72,74,76,78,80,82,84,86,88,90,92,94,96,98,100,102,104,106,108,110,112,114,116,118,120,122,124,126,-1,-1,-1,-1,-1,-1,-1,-1,-1,-1,-1,-1,-1,-1,-1,-1,-1,-1,-1,-1,-1,-1,-1,-1,-1,-1,-1,-1,-1,-1,-1,-1,-1,-1,-1,-1,-1,-1,-1,-1,-1,-1,-1,-1,-1,-1,-1,-1,-1,-1,-1,-1,-1,-1,-1,-1,-1,-1,-1,-1,-1,-1,-1,-1],"split_conditions":[2.1E1,9.5E0,3.54783E1,4.7667E0,1.51429E1,2.74019E1,4.66027E1,2.1038E0,7.177E0,1.20476E1,1.76E1,2.4E1,3.12063E1,4E1,5.43458E1,1.0625E0,3.3088E0,6E0,8.4019E0,1.06375E1,1.3825E1,1.625E1,1.92222E1,2.25333E1,2.53514E1,2.96E1,3.35E1,3.80968E1,4.2766E1,5.08994E1,6.03333E1,2.99253E5,3.04373E5,2.7303E0,2.92E-1,1.83467E5,1.54415E2,1.28E5,3.9813E4,3.9813E4,1.96533E5,1.30938E1,1.45E-1,3.91E-1,2.72E-1,-5.111E0,5.29E-1,6.48E-1,7.7E-2,6.48E-1,3.76E-1,9.05E-1,1.53E-1,6.48E-1,3.06E-1,5.7E-1,9.27E-1,6.64E-1,4.40104E1,4.85217E1,5.25E1,5.66667E1,6.3E-1,-5.963437E-1,-5.650789E-1,-5.48772E-1,-5.2391934E-1,-5.15938E-1,-4.949176E-1,-4.411295E-1,-4.6796113E-1,-4.0228677E-1,-4.3004328E-1,-3.885717E-1,-3.4707057E-1,-2.9040506E-1,-3.4809434E-1,-5.6689346E-1,-3.0721644E-1,-4.978443E-1,-2.690066E-1,-2.0473047E-1,-2.3975924E-1,-1.8889606E-1,-1.5882818E-1,-1.2093135E-1,-1.710809E-1,-8.0542974E-2,-1.3293475E-1,-4.1565895E-2,-1.5100627E-1,-9.8114675E-3,3.585172E-2,6.1660457E-2,-1.8020958E-3,1.15784764E-1,4.1741412E-2,1.7087193E-1,1.2270578E-1,2.114073E-1,1.1974154E-1,2.6621494E-1,2.2053818E-1,3.28684E-1,1.4584777E-1,4.0595588E-1,3.6339352E-1,4.5763022E-1,3.296629E-1,5.3013E-1,4.7065803E-1,6.0098004E-1,4.9681383E-1,6.6736096E-1,4.464151E-1,7.484807E-1,5.839526E-1,8.143429E-1,8.661403E-1,9.402217E-1,1.0165695E0,1.0776014E0,1.1416901E0,1.2030187E0,1.2954707E0,1.502553E0,1.24125E0],"split_indices":[12,12,12,12,12,12,12,12,12,12,12,12,12,12,12,12,12,12,12,12,12,12,12,12,12,12,12,12,12,12,12,9,9,12,0,9,8,9,9,9,9,12,3,6,3,2,6,6,3,6,6,6,6,6,6,6,6,6,12,12,12,12,6,0,0,0,0,0,0,0,0,0,0,0,0,0,0,0,0,0,0,0,0,0,0,0,0,0,0,0,0,0,0,0,0,0,0,0,0,0,0,0,0,0,0,0,0,0,0,0,0,0,0,0,0,0,0,0,0,0,0,0,0,0,0,0,0],"split_type":[0,0,0,0,0,0,0,0,0,0,0,0,0,0,0,0,0,0,0,0,0,0,0,0,0,0,0,0,0,0,0,0,0,0,0,0,0,0,0,0,0,0,0,0,0,0,0,0,0,0,0,0,0,0,0,0,0,0,0,0,0,0,0,0,0,0,0,0,0,0,0,0,0,0,0,0,0,0,0,0,0,0,0,0,0,0,0,0,0,0,0,0,0,0,0,0,0,0,0,0,0,0,0,0,0,0,0,0,0,0,0,0,0,0,0,0,0,0,0,0,0,0,0,0,0,0,0],"sum_hessian":[8.3525E5,5.18276E5,3.16974E5,2.42876E5,2.754E5,2.20849E5,9.6125E4,1.43677E5,9.9199E4,1.43886E5,1.31514E5,1.21495E5,9.9354E4,6.7334E4,2.8791E4,8.5837E4,5.784E4,4.8024E4,5.1175E4,6.4251E4,7.9635E4,5.7926E4,7.3588E4,6.0172E4,6.1323E4,5.4435E4,4.4919E4,3.4827E4,3.2507E4,1.9131E4,9.66E3,6.0303E4,2.5534E4,2.3895E4,3.3945E4,2.4733E4,2.3291E4,2.5575E4,2.56E4,2.8895E4,3.5356E4,4.4826E4,3.4809E4,2.5948E4,3.1978E4,3.8109E4,3.5479E4,3.1767E4,2.8405E4,2.6055E4,3.5268E4,3.1851E4,2.2584E4,2.554E4,1.9379E4,2.2395E4,1.2432E4,1.6511E4,1.5996E4,1.2719E4,6.412E3,6.443E3,3.217E3,4.2404E4,1.7899E4,1.7754E4,7.78E3,1.2863E4,1.1032E4,5.669E3,2.8276E4,6.661E3,1.8072E4,2.0038E4,3.253E3,1.971E3,2.3604E4,7.8E1,2.5522E4,1.23E2,2.8772E4,1.0838E4,2.4518E4,2.5596E4,1.923E4,3.0462E4,4.347E3,2.1965E4,3.983E3,3.0225E4,1.753E3,2.9177E4,8.932E3,3.2241E4,3.238E3,2.9438E4,2.329E3,2.0024E4,8.381E3,2.4185E4,1.87E3,3.0306E4,4.962E3,3.1329E4,5.22E2,1.3388E4,9.196E3,2.4338E4,1.202E3,1.5156E4,4.223E3,2.1137E4,1.258E3,1.2311E4,1.21E2,1.5794E4,7.17E2,6.319E3,9.677E3,6.359E3,6.36E3,3.216E3,3.196E3,3.242E3,3.201E3,3.139E3,7.8E1],"tree_param":{"num_deleted":"0","num_feature":"14","num_nodes":"127","size_leaf_vector":"1"}},{"base_weights":[-3.27428E-3,-5.2921104E0,8.485849E0,-8.887126E0,-2.1634023E0,5.2878184E0,1.5610721E1,-1.026383E1,-7.0428452E0,-3.8804486E0,-4.412775E-1,3.3886209E0,7.612233E0,1.3245884E1,2.1403442E1,-1.0893322E1,-9.210082E0,-7.866721E0,-6.315024E0,-4.72158E0,-3.0781991E0,-1.3691915E0,4.4968307E-1,2.4039977E0,4.374418E0,6.600424E0,9.014195E0,1.1665308E1,1.5093971E1,1.9469751E1,2.5254128E1,-1.122915E1,-1.0411149E1,-9.608672E0,-8.864377E0,-8.314867E0,-7.5672116E0,-6.85083E0,-6.023485E0,-5.1566544E0,-4.3279557E0,-3.6010382E0,-2.7808707E0,-1.8067662E0,-9.6997017E-1,1.8427509E-3,9.811099E-1,1.9733151E0,2.893946E0,3.8881795E0,4.915469E0,6.0343556E0,7.1638784E0,8.5134115E0,9.594023E0,1.0844356E1,1.224603E1,1.4105644E1,1.6114054E1,1.8253338E1,2.0672396E1,2.3768253E1,2.826002E1,-5.7037157E-1,-5.4008526E-1,-5.349662E-1,-5.123172E-1,-4.910121E-1,-4.687387E-1,-4.5577613E-1,-4.32753E-1,-3.7075207E-1,-4.201986E-1,-3.8658488E-1,-3.6187345E-1,-3.1928656E-1,-3.4878284E-1,-5.29834E-1,-3.0042928E-1,-2.5959635E-1,-1.499391E-1,-1.8763702E-1,-2.2366272E-1,-1.8126242E-1,-2.488442E-2,-1.0329425E-1,-1.4520371E-1,-7.786624E-2,-1.1846659E-1,-4.2779837E-2,-1.3884622E-1,1.5087488E-2,-2.2069175E-2,5.4320782E-2,-5.192779E-3,1.046254E-1,2.5517432E-2,1.528925E-1,9.9096105E-2,1.7764544E-1,2.2234738E-1,4.727092E-2,2.4737711E-1,3.1817096E-1,2.7940628E-1,4.92658E-1,3.553216E-1,4.369702E-1,3.8003358E-1,4.856471E-1,3.7894604E-1,5.74116E-1,5.1985055E-1,6.1736983E-1,5.109641E-1,7.120473E-1,5.826363E-1,7.833156E-1,8.3896583E-1,9.163831E-1,7.097853E-1,1.0077184E0,1.0849484E0,1.1422782E0,1.2343643E0,1.4189715E0,1.184632E0],"categories":[],"categories_nodes":[],"categories_segments":[],"categories_sizes":[],"default_left":[0,0,0,0,0,0,0,0,0,0,0,0,0,0,0,0,0,0,0,0,0,0,0,0,0,0,0,0,0,0,0,0,0,0,0,0,0,0,0,0,0,0,0,0,0,0,0,0,0,0,0,0,0,0,0,0,0,0,0,0,0,0,0,0,0,0,0,0,0,0,0,0,0,0,0,0,0,0,0,0,0,0,0,0,0,0,0,0,0,0,0,0,0,0,0,0,0,0,0,0,0,0,0,0,0,0,0,0,0,0,0,0,0,0,0,0,0,0,0,0,0,0,0,0,0,0,0],"id":12,"left_children":[1,3,5,7,9,11,13,15,17,19,21,23,25,27,29,31,33,35,37,39,41,43,45,47,49,51,53,55,57,59,61,63,65,67,69,71,73,75,77,79,81,83,85,87,89,91,93,95,97,99,101,103,105,107,109,111,113,115,117,119,121,123,125,-1,-1,-1,-1,-1,-1,-1,-1,-1,-1,-1,-1,-1,-1,-1,-1,-1,-1,-1,-1,-1,-1,-1,-1,-1,-1,-1,-1,-1,-1,-1,-1,-1,-1,-1,-1,-1,-1,-1,-1,-1,-1,-1,-1,-1,-1,-1,-1,-1,-1,-1,-1,-1,-1,-1,-1,-1,-1,-1,-1,-1,-1,-1,-1],"loss_changes":[3.74929E7,5.787197E6,7.30392E6,6.0782E5,8.134719E5,9.76678E5,1.360108E6,9.083E4,6.1314E4,9.294225E4,1.1355264E5,1.18177375E5,1.41063E5,2.05819E5,2.13857E5,1.3779E4,6.98E3,6.37925E3,8.44675E3,1.1493875E4,1.09511875E4,1.1751336E4,1.6676502E4,1.2849156E4,1.598775E4,1.838825E4,1.202675E4,1.79915E4,3.25445E4,2.7664E4,4.22955E4,3.7305E3,1.56375E3,1.08575E3,1.365E3,1.4785E3,1.505E3,1.06675E3,2.335E3,2.4151875E3,2.9344375E3,1.9184062E3,3.9538438E3,4.5003906E3,7.2690195E3,5.0549355E3,3.6613555E3,5.652867E3,4.2537812E3,5.9884062E3,3.6618125E3,4.19825E3,4.403375E3,4.551E3,4.55525E3,4.378E3,4.4465E3,5.31625E3,4.4995E3,2.61625E3,4.6845E3,4.90025E3,1.06025E3,0E0,0E0,0E0,0E0,0E0,0E0,0E0,0E0,0E0,0E0,0E0,0E0,0E0,0E0,0E0,0E0,0E0,0E0,0E0,0E0,0E0,0E0,0E0,0E0,0E0,0E0,0E0,0E0,0E0,0E0,0E0,0E0,0E0,0E0,0E0,0E0,0E0,0E0,0E0,0E0,0E0,0E0,0E0,0E0,0E0,0E0,0E0,0E0,0E0,0E0,0E0,0E0,0E0,0E0,0E0,0E0,0E0,0E0,0E0,0E0,0E0,0E0,0E0,0E0],"parents":[2147483647,0,0,1,1,2,2,3,3,4,4,5,5,6,6,7,7,8,8,9,9,10,10,11,11,12,12,13,13,14,14,15,15,16,16,17,17,18,18,19,19,20,20,21,21,22,22,23,23,24,24,25,25,26,26,27,27,28,28,29,29,30,30,31,31,32,32,33,33,34,34,35,35,36,36,37,37,38,38,39,39,40,40,41,41,42,42,43,43,44,44,45,45,46,46,47,47,48,48,49,49,50,50,51,51,52,52,53,53,54,54,55,55,56,56,57,57,58,58,59,59,60,60,61,61,62,62],"right_children":[2,4,6,8,10,12,14,16,18,20,22,24,26,28,30,32,34,36,38,40,42,44,46,48,50,52,54,56,58,60,62,64,66,68,70,72,74,76,78,80,82,84,86,88,90,92,94,96,98,100,102,104,106,108,110,112,114,116,118,120,122,124,126,-1,-1,-1,-1,-1,-1,-1,-1,-1,-1,-1,-1,-1,-1,-1,-1,-1,-1,-1,-1,-1,-1,-1,-1,-1,-1,-1,-1,-1,-1,-1,-1,-1,-1,-1,-1,-1,-1,-1,-1,-1,-1,-1,-1,-1,-1,-1,-1,-1,-1,-1,-1,-1,-1,-1,-1,-1,-1,-1,-1,-1,-1,-1,-1],"split_conditions":[2.08E1,9.3623E0,3.51203E1,4.4762E0,1.48333E1,2.71739E1,4.66027E1,2.1038E0,6.8679E0,1.20476E1,1.76E1,2.38148E1,3.12063E1,4E1,5.43458E1,7.291E-1,3.3088E0,5.4286E0,7.875E0,1.06375E1,1.30938E1,1.60989E1,1.92222E1,2.23974E1,2.55263E1,2.90556E1,3.31502E1,3.7E1,4.2766E1,4.96667E1,6.03333E1,2.99253E5,1.22E0,9.47E-2,3.08E-3,1.30147E5,6.3826E0,1.69893E5,3.9813E4,-2.147E0,1.46E-1,-1.918E0,1.59667E5,7.15E-2,7.4E-1,1.69E-1,5.29E-1,6.48E-1,3.65E-1,-5.887E0,6.0552E4,5.78E-2,-2.9072E1,3.12E-1,6.64E-1,5.1E-6,6.3E-1,5.9E-1,4.48511E1,8.51E-1,5.25E1,5.66667E1,6.1E-1,-5.7037157E-1,-5.4008526E-1,-5.349662E-1,-5.123172E-1,-4.910121E-1,-4.687387E-1,-4.5577613E-1,-4.32753E-1,-3.7075207E-1,-4.201986E-1,-3.8658488E-1,-3.6187345E-1,-3.1928656E-1,-3.4878284E-1,-5.29834E-1,-3.0042928E-1,-2.5959635E-1,-1.499391E-1,-1.8763702E-1,-2.2366272E-1,-1.8126242E-1,-2.488442E-2,-1.0329425E-1,-1.4520371E-1,-7.786624E-2,-1.1846659E-1,-4.2779837E-2,-1.3884622E-1,1.5087488E-2,-2.2069175E-2,5.4320782E-2,-5.192779E-3,1.046254E-1,2.5517432E-2,1.528925E-1,9.9096105E-2,1.7764544E-1,2.2234738E-1,4.727092E-2,2.4737711E-1,3.1817096E-1,2.7940628E-1,4.92658E-1,3.553216E-1,4.369702E-1,3.8003358E-1,4.856471E-1,3.7894604E-1,5.74116E-1,5.1985055E-1,6.1736983E-1,5.109641E-1,7.120473E-1,5.826363E-1,7.833156E-1,8.3896583E-1,9.163831E-1,7.097853E-1,1.0077184E0,1.0849484E0,1.1422782E0,1.2343643E0,1.4189715E0,1.184632E0],"split_indices":[12,12,12,12,12,12,12,12,12,12,12,12,12,12,12,12,12,12,12,12,12,12,12,12,12,12,12,12,12,12,12,9,12,5,5,9,12,9,9,2,7,2,9,3,6,6,6,6,6,2,9,3,2,6,6,5,6,6,12,6,12,12,6,0,0,0,0,0,0,0,0,0,0,0,0,0,0,0,0,0,0,0,0,0,0,0,0,0,0,0,0,0,0,0,0,0,0,0,0,0,0,0,0,0,0,0,0,0,0,0,0,0,0,0,0,0,0,0,0,0,0,0,0,0,0,0,0],"split_type":[0,0,0,0,0,0,0,0,0,0,0,0,0,0,0,0,0,0,0,0,0,0,0,0,0,0,0,0,0,0,0,0,0,0,0,0,0,0,0,0,0,0,0,0,0,0,0,0,0,0,0,0,0,0,0,0,0,0,0,0,0,0,0,0,0,0,0,0,0,0,0,0,0,0,0,0,0,0,0,0,0,0,0,0,0,0,0,0,0,0,0,0,0,0,0,0,0,0,0,0,0,0,0,0,0,0,0,0,0,0,0,0,0,0,0,0,0,0,0,0,0,0,0,0,0,0,0],"sum_hessian":[8.35074E5,5.14521E5,3.20553E5,2.39418E5,2.75103E5,2.21247E5,9.9306E4,1.37084E5,1.02334E5,1.37754E5,1.37349E5,1.21762E5,9.9485E4,7.052E4,2.8786E4,8.5812E4,5.1272E4,4.7995E4,5.4339E4,6.7245E4,7.0509E4,6.7279E4,7.007E4,6.0919E4,6.0843E4,5.7786E4,4.1699E4,3.8015E4,3.2505E4,1.9167E4,9.619E3,5.0569E4,3.5243E4,2.3802E4,2.747E4,1.9216E4,2.8779E4,1.914E4,3.5199E4,3.1935E4,3.531E4,2.5557E4,4.4952E4,3.2096E4,3.5183E4,3.8026E4,3.2044E4,3.2423E4,2.8496E4,3.2049E4,2.8794E4,2.8832E4,2.8954E4,2.2383E4,1.9316E4,1.5758E4,2.2257E4,1.6517E4,1.5988E4,9.537E3,9.63E3,6.443E3,3.176E3,3.5667E4,1.4902E4,1.2799E4,2.2444E4,1.2476E4,1.1326E4,1.2468E4,1.5002E4,1.739E3,1.7477E4,1.9186E4,9.593E3,4.061E3,1.5079E4,1.12E2,3.5087E4,3.142E4,5.15E2,7.126E3,2.8184E4,2.5359E4,1.98E2,6.61E3,3.8342E4,2.2239E4,9.857E3,3.309E4,2.093E3,2.268E4,1.5346E4,2.9209E4,2.835E3,2.998E4,2.443E3,2.4153E4,4.343E3,2.0035E4,1.2014E4,2.31E2,2.8563E4,1.6587E4,1.2245E4,6.02E2,2.8352E4,1.7934E4,4.449E3,1.8236E4,1.08E3,6.485E3,9.273E3,2.1192E4,1.065E3,1.5649E4,8.68E2,9.571E3,6.417E3,9.362E3,1.75E2,6.414E3,3.216E3,3.228E3,3.215E3,3.09E3,8.6E1],"tree_param":{"num_deleted":"0","num_feature":"14","num_nodes":"127","size_leaf_vector":"1"}},{"base_weights":[-8.566364E-4,-4.981612E0,8.146104E0,-8.398418E0,-1.9741461E0,5.1677117E0,1.4991514E1,-9.789012E0,-6.688388E0,-3.5449646E0,-2.543452E-1,3.343379E0,7.4022574E0,1.288071E1,2.0770699E1,-1.04371E1,-8.931195E0,-7.563081E0,-5.995924E0,-4.604471E0,-2.8977199E0,-1.1655762E0,5.1677877E-1,2.4501321E0,4.3300896E0,6.3665423E0,8.657709E0,1.1349639E1,1.4713908E1,1.9302786E1,2.5186548E1,-1.0748022E1,-1.0076336E1,-9.396778E0,-8.556988E0,-8.010774E0,-7.264967E0,-6.388074E0,-5.5600204E0,-5.0363355E0,-4.367773E0,-3.3685572E0,-2.4299996E0,-1.5697433E0,-7.8618616E-1,7.9804905E-2,1.0440744E0,1.9531155E0,2.8602066E0,3.97482E0,4.894623E0,5.7807264E0,6.8847237E0,8.137133E0,9.345377E0,1.075814E1,1.2176168E1,1.3713938E1,1.5717405E1,1.8035303E1,2.0573006E1,2.3381226E1,2.6998123E1,-5.460697E-1,-5.1644295E-1,-5.127861E-1,-4.8696542E-1,-4.762423E-1,-4.5632464E-1,-4.0431246E-1,-4.334664E-1,-3.5752836E-1,-4.0500125E-1,-5.156181E-1,-3.623914E-1,-3.2960925E-1,-3.040831E-1,-4.9618703E-1,-2.7732158E-1,-1.772499E-1,-2.561609E-1,-1.8795954E-1,-2.2681402E-1,-4.0621686E-1,-1.6771725E-1,-1.1501493E-1,-1.572712E-1,-7.042172E-2,-1.22620426E-1,-3.3642214E-2,-1.4564054E-1,-5.6766253E-3,3.4321245E-2,7.239725E-2,3.2055706E-2,1.0299452E-1,3.2639045E-2,1.5144046E-1,9.5391475E-2,2.0598796E-1,1.359319E-1,2.5156844E-1,1.8290095E-1,3.0519134E-1,2.685702E-1,3.6006787E-1,3.2175565E-1,4.0981957E-1,2.2483258E-1,4.7143188E-1,3.217086E-1,5.433883E-1,4.3956685E-1,6.145639E-1,4.8996815E-1,6.9062877E-1,5.7102096E-1,7.642757E-1,8.1897324E-1,9.0655863E-1,7.056989E-1,9.995801E-1,1.0865966E0,1.0453213E0,1.1751997E0,1.3844862E0,1.3064326E0],"categories":[],